<?xml version="1.0" encoding="US-ASCII"?>

<!--
  Bayesian network in XMLBIF v0.3 (BayesNet Interchange Format)
  Produced by SamIam http://reasoning.cs.ucla.edu/samiam
  Output created 3-giu-2020 20.42.14
-->

<BIF VERSION="0.3">
<NETWORK>
  <NAME>bayesiannetwork</NAME>

  <VARIABLE TYPE="nature">
    <NAME>ERRLOWOUTPUT</NAME>
    <OUTCOME>TRUE</OUTCOME>
    <OUTCOME>FALSE</OUTCOME>
    <PROPERTY>position = (249, -715)</PROPERTY>
  </VARIABLE>

  <VARIABLE TYPE="nature">
    <NAME>MINVOLSET</NAME>
    <OUTCOME>LOW</OUTCOME>
    <OUTCOME>NORMAL</OUTCOME>
    <OUTCOME>HIGH</OUTCOME>
    <PROPERTY>position = (1235, -4)</PROPERTY>
  </VARIABLE>

  <VARIABLE TYPE="nature">
    <NAME>SAO2</NAME>
    <OUTCOME>LOW</OUTCOME>
    <OUTCOME>NORMAL</OUTCOME>
    <OUTCOME>HIGH</OUTCOME>
    <PROPERTY>position = (727, -532)</PROPERTY>
  </VARIABLE>

  <VARIABLE TYPE="nature">
    <NAME>PVSAT</NAME>
    <OUTCOME>LOW</OUTCOME>
    <OUTCOME>NORMAL</OUTCOME>
    <OUTCOME>HIGH</OUTCOME>
    <PROPERTY>position = (807, -456)</PROPERTY>
  </VARIABLE>

  <VARIABLE TYPE="nature">
    <NAME>ERRCAUTER</NAME>
    <OUTCOME>TRUE</OUTCOME>
    <OUTCOME>FALSE</OUTCOME>
    <PROPERTY>position = (965, -752)</PROPERTY>
  </VARIABLE>

  <VARIABLE TYPE="nature">
    <NAME>PRESS_E</NAME>
    <OUTCOME>ZERO</OUTCOME>
    <OUTCOME>LOW</OUTCOME>
    <OUTCOME>NORMAL</OUTCOME>
    <OUTCOME>HIGH</OUTCOME>
    <PROPERTY>position = (1179, -299)</PROPERTY>
  </VARIABLE>

  <VARIABLE TYPE="nature">
    <NAME>ANAPHYLAXIS_0</NAME>
    <OUTCOME>TRUE</OUTCOME>
    <OUTCOME>FALSE</OUTCOME>
    <PROPERTY>position = (-276, -271)</PROPERTY>
  </VARIABLE>

  <VARIABLE TYPE="nature">
    <NAME>HYPOVOLEMIA_0</NAME>
    <OUTCOME>TRUE</OUTCOME>
    <OUTCOME>FALSE</OUTCOME>
    <PROPERTY>position = (246, -414)</PROPERTY>
  </VARIABLE>

  <VARIABLE TYPE="nature">
    <NAME>HRSAT_E</NAME>
    <OUTCOME>LOW</OUTCOME>
    <OUTCOME>NORMAL</OUTCOME>
    <OUTCOME>HIGH</OUTCOME>
    <PROPERTY>position = (807, -858)</PROPERTY>
  </VARIABLE>

  <VARIABLE TYPE="nature">
    <NAME>INTUBATION_0</NAME>
    <OUTCOME>NORMAL</OUTCOME>
    <OUTCOME>ESOPHAGEAL</OUTCOME>
    <OUTCOME>ONESIDED</OUTCOME>
    <PROPERTY>position = (834, 1)</PROPERTY>
  </VARIABLE>

  <VARIABLE TYPE="nature">
    <NAME>BP_E</NAME>
    <OUTCOME>LOW</OUTCOME>
    <OUTCOME>NORMAL</OUTCOME>
    <OUTCOME>HIGH</OUTCOME>
    <PROPERTY>position = (284, -948)</PROPERTY>
  </VARIABLE>

  <VARIABLE TYPE="nature">
    <NAME>HREKG_E</NAME>
    <OUTCOME>LOW</OUTCOME>
    <OUTCOME>NORMAL</OUTCOME>
    <OUTCOME>HIGH</OUTCOME>
    <PROPERTY>position = (972, -858)</PROPERTY>
  </VARIABLE>

  <VARIABLE TYPE="nature">
    <NAME>VENTALV</NAME>
    <OUTCOME>ZERO</OUTCOME>
    <OUTCOME>LOW</OUTCOME>
    <OUTCOME>NORMAL</OUTCOME>
    <OUTCOME>HIGH</OUTCOME>
    <PROPERTY>position = (990, -395)</PROPERTY>
  </VARIABLE>

  <VARIABLE TYPE="nature">
    <NAME>ANAPHYLAXIS</NAME>
    <OUTCOME>TRUE</OUTCOME>
    <OUTCOME>FALSE</OUTCOME>
    <PROPERTY>position = (-273, -388)</PROPERTY>
  </VARIABLE>

  <VARIABLE TYPE="nature">
    <NAME>CVP_E</NAME>
    <OUTCOME>LOW</OUTCOME>
    <OUTCOME>NORMAL</OUTCOME>
    <OUTCOME>HIGH</OUTCOME>
    <PROPERTY>position = (-77, -846)</PROPERTY>
  </VARIABLE>

  <VARIABLE TYPE="nature">
    <NAME>DISCONNECT</NAME>
    <OUTCOME>TRUE</OUTCOME>
    <OUTCOME>FALSE</OUTCOME>
    <PROPERTY>position = (1113, -106)</PROPERTY>
  </VARIABLE>

  <VARIABLE TYPE="nature">
    <NAME>FIO2</NAME>
    <OUTCOME>LOW</OUTCOME>
    <OUTCOME>NORMAL</OUTCOME>
    <PROPERTY>position = (627, -383)</PROPERTY>
  </VARIABLE>

  <VARIABLE TYPE="nature">
    <NAME>PULMEMBOLUS_0</NAME>
    <OUTCOME>TRUE</OUTCOME>
    <OUTCOME>FALSE</OUTCOME>
    <PROPERTY>position = (655, -42)</PROPERTY>
  </VARIABLE>

  <VARIABLE TYPE="nature">
    <NAME>LVFAILURE_0</NAME>
    <OUTCOME>TRUE</OUTCOME>
    <OUTCOME>FALSE</OUTCOME>
    <PROPERTY>position = (27, -262)</PROPERTY>
  </VARIABLE>

  <VARIABLE TYPE="nature">
    <NAME>VENTMACH</NAME>
    <OUTCOME>ZERO</OUTCOME>
    <OUTCOME>LOW</OUTCOME>
    <OUTCOME>NORMAL</OUTCOME>
    <OUTCOME>HIGH</OUTCOME>
    <PROPERTY>position = (1243, -96)</PROPERTY>
  </VARIABLE>

  <VARIABLE TYPE="nature">
    <NAME>PCWP_E</NAME>
    <OUTCOME>LOW</OUTCOME>
    <OUTCOME>NORMAL</OUTCOME>
    <OUTCOME>HIGH</OUTCOME>
    <PROPERTY>position = (83, -852)</PROPERTY>
  </VARIABLE>

  <VARIABLE TYPE="nature">
    <NAME>KINKEDTUBE</NAME>
    <OUTCOME>TRUE</OUTCOME>
    <OUTCOME>FALSE</OUTCOME>
    <PROPERTY>position = (1172, -426)</PROPERTY>
  </VARIABLE>

  <VARIABLE TYPE="nature">
    <NAME>FIO2_0</NAME>
    <OUTCOME>LOW</OUTCOME>
    <OUTCOME>NORMAL</OUTCOME>
    <PROPERTY>position = (489, -331)</PROPERTY>
  </VARIABLE>

  <VARIABLE TYPE="nature">
    <NAME>MINVOLSET_0</NAME>
    <OUTCOME>LOW</OUTCOME>
    <OUTCOME>NORMAL</OUTCOME>
    <OUTCOME>HIGH</OUTCOME>
    <PROPERTY>position = (1081, 10)</PROPERTY>
  </VARIABLE>

  <VARIABLE TYPE="nature">
    <NAME>CATECHOL</NAME>
    <OUTCOME>NORMAL</OUTCOME>
    <OUTCOME>HIGH</OUTCOME>
    <PROPERTY>position = (638, -610)</PROPERTY>
  </VARIABLE>

  <VARIABLE TYPE="nature">
    <NAME>KINKEDTUBE_0</NAME>
    <OUTCOME>TRUE</OUTCOME>
    <OUTCOME>FALSE</OUTCOME>
    <PROPERTY>position = (0, 0)</PROPERTY>
  </VARIABLE>

  <VARIABLE TYPE="nature">
    <NAME>INSUFFANESTH</NAME>
    <OUTCOME>TRUE</OUTCOME>
    <OUTCOME>FALSE</OUTCOME>
    <PROPERTY>position = (803, -648)</PROPERTY>
  </VARIABLE>

  <VARIABLE TYPE="nature">
    <NAME>PAP_E</NAME>
    <OUTCOME>LOW</OUTCOME>
    <OUTCOME>NORMAL</OUTCOME>
    <OUTCOME>HIGH</OUTCOME>
    <PROPERTY>position = (635, -247)</PROPERTY>
  </VARIABLE>

  <VARIABLE TYPE="nature">
    <NAME>VENTTUBE</NAME>
    <OUTCOME>ZERO</OUTCOME>
    <OUTCOME>LOW</OUTCOME>
    <OUTCOME>NORMAL</OUTCOME>
    <OUTCOME>HIGH</OUTCOME>
    <PROPERTY>position = (1193, -184)</PROPERTY>
  </VARIABLE>

  <VARIABLE TYPE="nature">
    <NAME>HRBP_E</NAME>
    <OUTCOME>LOW</OUTCOME>
    <OUTCOME>NORMAL</OUTCOME>
    <OUTCOME>HIGH</OUTCOME>
    <PROPERTY>position = (241, -848)</PROPERTY>
  </VARIABLE>

  <VARIABLE TYPE="nature">
    <NAME>VENTLUNG</NAME>
    <OUTCOME>ZERO</OUTCOME>
    <OUTCOME>LOW</OUTCOME>
    <OUTCOME>NORMAL</OUTCOME>
    <OUTCOME>HIGH</OUTCOME>
    <PROPERTY>position = (1009, -284)</PROPERTY>
  </VARIABLE>

  <VARIABLE TYPE="nature">
    <NAME>ARTCO2</NAME>
    <OUTCOME>LOW</OUTCOME>
    <OUTCOME>NORMAL</OUTCOME>
    <OUTCOME>HIGH</OUTCOME>
    <PROPERTY>position = (942, -492)</PROPERTY>
  </VARIABLE>

  <VARIABLE TYPE="nature">
    <NAME>MINVOL_E</NAME>
    <OUTCOME>ZERO</OUTCOME>
    <OUTCOME>LOW</OUTCOME>
    <OUTCOME>NORMAL</OUTCOME>
    <OUTCOME>HIGH</OUTCOME>
    <PROPERTY>position = (826, -362)</PROPERTY>
  </VARIABLE>

  <VARIABLE TYPE="nature">
    <NAME>SHUNT</NAME>
    <OUTCOME>NORMAL</OUTCOME>
    <OUTCOME>HIGH</OUTCOME>
    <PROPERTY>position = (777, -267)</PROPERTY>
  </VARIABLE>

  <VARIABLE TYPE="nature">
    <NAME>EXPCO2_E</NAME>
    <OUTCOME>ZERO</OUTCOME>
    <OUTCOME>LOW</OUTCOME>
    <OUTCOME>NORMAL</OUTCOME>
    <OUTCOME>HIGH</OUTCOME>
    <PROPERTY>position = (1002, -612)</PROPERTY>
  </VARIABLE>

  <VARIABLE TYPE="nature">
    <NAME>TPR</NAME>
    <OUTCOME>LOW</OUTCOME>
    <OUTCOME>NORMAL</OUTCOME>
    <OUTCOME>HIGH</OUTCOME>
    <PROPERTY>position = (-270, -510)</PROPERTY>
  </VARIABLE>

  <VARIABLE TYPE="nature">
    <NAME>ERRCAUTER_0</NAME>
    <OUTCOME>TRUE</OUTCOME>
    <OUTCOME>FALSE</OUTCOME>
    <PROPERTY>position = (825, -722)</PROPERTY>
  </VARIABLE>

  <VARIABLE TYPE="nature">
    <NAME>LVFAILURE</NAME>
    <OUTCOME>TRUE</OUTCOME>
    <OUTCOME>FALSE</OUTCOME>
    <PROPERTY>position = (50, -588)</PROPERTY>
  </VARIABLE>

  <VARIABLE TYPE="nature">
    <NAME>HISTORY_E</NAME>
    <OUTCOME>TRUE</OUTCOME>
    <OUTCOME>FALSE</OUTCOME>
    <PROPERTY>position = (-131, -714)</PROPERTY>
  </VARIABLE>

  <VARIABLE TYPE="nature">
    <NAME>INTUBATION</NAME>
    <OUTCOME>NORMAL</OUTCOME>
    <OUTCOME>ESOPHAGEAL</OUTCOME>
    <OUTCOME>ONESIDED</OUTCOME>
    <PROPERTY>position = (895, -107)</PROPERTY>
  </VARIABLE>

  <VARIABLE TYPE="nature">
    <NAME>INSUFFANESTH_0</NAME>
    <OUTCOME>TRUE</OUTCOME>
    <OUTCOME>FALSE</OUTCOME>
    <PROPERTY>position = (995, -683)</PROPERTY>
  </VARIABLE>

  <VARIABLE TYPE="nature">
    <NAME>CO</NAME>
    <OUTCOME>LOW</OUTCOME>
    <OUTCOME>NORMAL</OUTCOME>
    <OUTCOME>HIGH</OUTCOME>
    <PROPERTY>position = (449, -862)</PROPERTY>
  </VARIABLE>

  <VARIABLE TYPE="nature">
    <NAME>DISCONNECT_0</NAME>
    <OUTCOME>TRUE</OUTCOME>
    <OUTCOME>FALSE</OUTCOME>
    <PROPERTY>position = (992, -40)</PROPERTY>
  </VARIABLE>

  <VARIABLE TYPE="nature">
    <NAME>PULMEMBOLUS</NAME>
    <OUTCOME>TRUE</OUTCOME>
    <OUTCOME>FALSE</OUTCOME>
    <PROPERTY>position = (754, -154)</PROPERTY>
  </VARIABLE>

  <VARIABLE TYPE="nature">
    <NAME>LVEDVOLUME</NAME>
    <OUTCOME>LOW</OUTCOME>
    <OUTCOME>NORMAL</OUTCOME>
    <OUTCOME>HIGH</OUTCOME>
    <PROPERTY>position = (79, -714)</PROPERTY>
  </VARIABLE>

  <VARIABLE TYPE="nature">
    <NAME>STROKEVOLUME</NAME>
    <OUTCOME>LOW</OUTCOME>
    <OUTCOME>NORMAL</OUTCOME>
    <OUTCOME>HIGH</OUTCOME>
    <PROPERTY>position = (441, -710)</PROPERTY>
  </VARIABLE>

  <VARIABLE TYPE="nature">
    <NAME>HYPOVOLEMIA</NAME>
    <OUTCOME>TRUE</OUTCOME>
    <OUTCOME>FALSE</OUTCOME>
    <PROPERTY>position = (262, -602)</PROPERTY>
  </VARIABLE>

  <VARIABLE TYPE="nature">
    <NAME>ERRLOWOUTPUT_0</NAME>
    <OUTCOME>TRUE</OUTCOME>
    <OUTCOME>FALSE</OUTCOME>
    <PROPERTY>position = (0, 0)</PROPERTY>
  </VARIABLE>

  <VARIABLE TYPE="nature">
    <NAME>HR</NAME>
    <OUTCOME>LOW</OUTCOME>
    <OUTCOME>NORMAL</OUTCOME>
    <OUTCOME>HIGH</OUTCOME>
    <PROPERTY>position = (575, -702)</PROPERTY>
  </VARIABLE>

  <DEFINITION>
    <FOR>ERRLOWOUTPUT</FOR>
    <GIVEN>ERRLOWOUTPUT_0</GIVEN>
    <TABLE>0.95 0.050000000000000044 0.05 0.95 </TABLE>
  </DEFINITION>

  <DEFINITION>
    <FOR>MINVOLSET</FOR>
    <GIVEN>MINVOLSET_0</GIVEN>
    <TABLE>0.05 0.9 0.05 0.05 0.9 0.05 0.05 0.9 0.05 </TABLE>
  </DEFINITION>

  <DEFINITION>
    <FOR>SAO2</FOR>
    <GIVEN>PVSAT</GIVEN>
    <GIVEN>SHUNT</GIVEN>
    <TABLE>0.98 0.01 0.01 0.98 0.01 0.01 0.01 0.98 0.01 0.98 0.01 0.01 0.01 0.01 0.98 0.69 0.3 0.01 </TABLE>
  </DEFINITION>

  <DEFINITION>
    <FOR>PVSAT</FOR>
    <GIVEN>FIO2</GIVEN>
    <GIVEN>VENTALV</GIVEN>
    <TABLE>1.0 0.0 0.0 0.95 0.04 0.01 1.0 0.0 0.0 0.01 0.95 0.04 0.99 0.01 0.0 0.95 0.04 0.01 0.95 0.04 0.01 0.01 0.01 0.98 </TABLE>
  </DEFINITION>

  <DEFINITION>
    <FOR>ERRCAUTER</FOR>
    <GIVEN>ERRCAUTER_0</GIVEN>
    <TABLE>0.6 0.4 0.42 0.58 </TABLE>
  </DEFINITION>

  <DEFINITION>
    <FOR>PRESS_E</FOR>
    <GIVEN>INTUBATION</GIVEN>
    <GIVEN>KINKEDTUBE</GIVEN>
    <GIVEN>VENTTUBE</GIVEN>
    <TABLE>0.97 0.01 0.01 0.01 0.05 0.25 0.25 0.45 0.97 0.01 0.01 0.01 0.2 0.75 0.04 0.01 0.01 0.01 0.01 0.97 0.01 0.29 0.3 0.4 0.01 0.01 0.01 0.97 0.01 0.9 0.08 0.01 0.01 0.3 0.49 0.2 0.01 0.15 0.25 0.59 0.01 0.97 0.01 0.01 0.20000000000000004 0.7000000000000001 0.09000000000000001 0.010000000000000002 0.97 0.01 0.01 0.01 0.01 0.01 0.08 0.9 0.97 0.01 0.01 0.01 0.01 0.01 0.38 0.6 0.01 0.01 0.08 0.9 0.97 0.01 0.01 0.01 0.01 0.01 0.97 0.01 0.97 0.01 0.01 0.01 0.1 0.84 0.05 0.01 0.01 0.01 0.01 0.97 0.4 0.58 0.01 0.01 0.01 0.01 0.01 0.97 </TABLE>
  </DEFINITION>

  <DEFINITION>
    <FOR>ANAPHYLAXIS_0</FOR>
    <TABLE>0.01 0.99 </TABLE>
  </DEFINITION>

  <DEFINITION>
    <FOR>HYPOVOLEMIA_0</FOR>
    <TABLE>0.15000000000000002 0.8500000000000001 </TABLE>
  </DEFINITION>

  <DEFINITION>
    <FOR>HRSAT_E</FOR>
    <GIVEN>ERRCAUTER</GIVEN>
    <GIVEN>HR</GIVEN>
    <TABLE>0.33333333333333337 0.33333333333333337 0.33333333333333337 0.33333333333333337 0.33333333333333337 0.33333333333333337 0.01 0.98 0.01 0.33333333333333337 0.33333333333333337 0.33333333333333337 0.98 0.01 0.01 0.01 0.01 0.98 </TABLE>
  </DEFINITION>

  <DEFINITION>
    <FOR>INTUBATION_0</FOR>
    <TABLE>0.92 0.03 0.05 </TABLE>
  </DEFINITION>

  <DEFINITION>
    <FOR>BP_E</FOR>
    <GIVEN>CO</GIVEN>
    <GIVEN>TPR</GIVEN>
    <TABLE>0.98 0.01 0.01 0.98 0.01 0.01 0.30000000000000004 0.6000000000000001 0.09999999999999999 0.98 0.01 0.01 0.1 0.85 0.05 0.05 0.4 0.55 0.9 0.09 0.01 0.05 0.2 0.75 0.01 0.09 0.9 </TABLE>
  </DEFINITION>

  <DEFINITION>
    <FOR>HREKG_E</FOR>
    <GIVEN>ERRCAUTER</GIVEN>
    <GIVEN>HR</GIVEN>
    <TABLE>0.33333333333333337 0.33333333333333337 0.33333333333333337 0.33333333333333337 0.33333333333333337 0.33333333333333337 0.01 0.98 0.01 0.33333333333333337 0.33333333333333337 0.33333333333333337 0.98 0.01 0.01 0.01 0.01 0.98 </TABLE>
  </DEFINITION>

  <DEFINITION>
    <FOR>VENTALV</FOR>
    <GIVEN>INTUBATION</GIVEN>
    <GIVEN>VENTLUNG</GIVEN>
    <TABLE>0.97 0.01 0.01 0.01 0.01 0.01 0.01 0.97 0.01 0.01 0.97 0.01 0.03 0.95 0.01 0.01 0.01 0.97 0.01 0.01 0.97 0.01 0.01 0.01 0.01 0.01 0.01 0.97 0.01 0.94 0.04 0.01 0.01 0.01 0.97 0.01 0.01 0.97 0.01 0.01 0.97 0.01 0.01 0.01 0.01 0.88 0.1 0.01 </TABLE>
  </DEFINITION>

  <DEFINITION>
    <FOR>ANAPHYLAXIS</FOR>
    <GIVEN>ANAPHYLAXIS_0</GIVEN>
    <GIVEN>LVFAILURE_0</GIVEN>
    <TABLE>0.7 0.3 0.6 0.4 0.45 0.55 0.3 0.7 </TABLE>
  </DEFINITION>

  <DEFINITION>
    <FOR>CVP_E</FOR>
    <GIVEN>LVEDVOLUME</GIVEN>
    <TABLE>0.95 0.04 0.01 0.04 0.95 0.01 0.01 0.29 0.7 </TABLE>
  </DEFINITION>

  <DEFINITION>
    <FOR>DISCONNECT</FOR>
    <GIVEN>DISCONNECT_0</GIVEN>
    <GIVEN>MINVOLSET_0</GIVEN>
    <TABLE>0.6 0.4 0.8 0.2 0.4 0.6 0.3 0.7 0.4 0.6 0.8 0.2 </TABLE>
  </DEFINITION>

  <DEFINITION>
    <FOR>FIO2</FOR>
    <GIVEN>FIO2_0</GIVEN>
    <TABLE>0.9 0.1 0.55 0.45 </TABLE>
  </DEFINITION>

  <DEFINITION>
    <FOR>PULMEMBOLUS_0</FOR>
    <TABLE>0.01 0.99 </TABLE>
  </DEFINITION>

  <DEFINITION>
    <FOR>LVFAILURE_0</FOR>
    <TABLE>0.05 0.95 </TABLE>
  </DEFINITION>

  <DEFINITION>
    <FOR>VENTMACH</FOR>
    <GIVEN>MINVOLSET</GIVEN>
    <TABLE>0.05 0.93 0.01 0.01 0.05 0.01 0.93 0.01 0.05 0.01 0.01 0.93 </TABLE>
  </DEFINITION>

  <DEFINITION>
    <FOR>PCWP_E</FOR>
    <GIVEN>LVEDVOLUME</GIVEN>
    <TABLE>0.95 0.04 0.01 0.04 0.95 0.01 0.01 0.04 0.95 </TABLE>
  </DEFINITION>

  <DEFINITION>
    <FOR>KINKEDTUBE</FOR>
    <GIVEN>KINKEDTUBE_0</GIVEN>
    <TABLE>0.96 0.040000000000000036 0.04 0.96 </TABLE>
  </DEFINITION>

  <DEFINITION>
    <FOR>FIO2_0</FOR>
    <TABLE>0.05 0.95 </TABLE>
  </DEFINITION>

  <DEFINITION>
    <FOR>MINVOLSET_0</FOR>
    <TABLE>0.05 0.9 0.05 </TABLE>
  </DEFINITION>

  <DEFINITION>
    <FOR>CATECHOL</FOR>
    <GIVEN>ARTCO2</GIVEN>
    <GIVEN>INSUFFANESTH</GIVEN>
    <GIVEN>SAO2</GIVEN>
    <GIVEN>TPR</GIVEN>
    <TABLE>0.01 0.99 0.01 0.99 0.7 0.3 0.01 0.99 0.05 0.95 0.7 0.3 0.01 0.99 0.05 0.95 0.95 0.05 0.01 0.99 0.05 0.95 0.7 0.3 0.01 0.99 0.05 0.95 0.95 0.05 0.05 0.95 0.05 0.95 0.95 0.05 0.01 0.99 0.01 0.99 0.7 0.3 0.01 0.99 0.05 0.95 0.7 0.3 0.01 0.99 0.05 0.95 0.99 0.01 0.01 0.99 0.05 0.95 0.7 0.3 0.01 0.99 0.05 0.95 0.99 0.01 0.05 0.95 0.05 0.95 0.99 0.01 0.01 0.99 0.01 0.99 0.1 0.9 0.01 0.99 0.01 0.99 0.1 0.9 0.01 0.99 0.01 0.99 0.3 0.7 0.01 0.99 0.01 0.99 0.1 0.9 0.01 0.99 0.01 0.99 0.3 0.7 0.01 0.99 0.01 0.99 0.3 0.7 </TABLE>
  </DEFINITION>

  <DEFINITION>
    <FOR>KINKEDTUBE_0</FOR>
    <TABLE>0.04 0.96 </TABLE>
  </DEFINITION>

  <DEFINITION>
    <FOR>INSUFFANESTH</FOR>
    <GIVEN>INSUFFANESTH_0</GIVEN>
    <TABLE>0.8 0.2 0.3 0.7 </TABLE>
  </DEFINITION>

  <DEFINITION>
    <FOR>PAP_E</FOR>
    <GIVEN>PULMEMBOLUS</GIVEN>
    <TABLE>0.01 0.19 0.8 0.05 0.9 0.05 </TABLE>
  </DEFINITION>

  <DEFINITION>
    <FOR>VENTTUBE</FOR>
    <GIVEN>DISCONNECT</GIVEN>
    <GIVEN>VENTMACH</GIVEN>
    <TABLE>0.97 0.01 0.01 0.01 0.97 0.01 0.01 0.01 0.97 0.01 0.01 0.01 0.01 0.01 0.97 0.01 0.97 0.01 0.01 0.01 0.97 0.01 0.01 0.01 0.01 0.97 0.01 0.01 0.01 0.01 0.01 0.97 </TABLE>
  </DEFINITION>

  <DEFINITION>
    <FOR>HRBP_E</FOR>
    <GIVEN>ERRLOWOUTPUT</GIVEN>
    <GIVEN>HR</GIVEN>
    <TABLE>0.98 0.01 0.01 0.3 0.4 0.3 0.01 0.98 0.01 0.4 0.59 0.01 0.98 0.01 0.01 0.01 0.01 0.98 </TABLE>
  </DEFINITION>

  <DEFINITION>
    <FOR>VENTLUNG</FOR>
    <GIVEN>INTUBATION</GIVEN>
    <GIVEN>KINKEDTUBE</GIVEN>
    <GIVEN>VENTTUBE</GIVEN>
    <TABLE>0.97 0.01 0.01 0.01 0.97 0.01 0.01 0.01 0.97 0.01 0.01 0.01 0.97 0.01 0.01 0.01 0.3 0.68 0.01 0.01 0.95 0.03 0.01 0.01 0.01 0.01 0.01 0.97 0.01 0.97 0.01 0.01 0.95 0.03 0.01 0.01 0.97 0.01 0.01 0.01 0.01 0.97 0.01 0.01 0.97 0.01 0.01 0.01 0.97 0.01 0.01 0.01 0.5 0.48 0.01 0.01 0.97 0.01 0.01 0.01 0.01 0.01 0.97 0.01 0.4 0.58 0.01 0.01 0.97 0.01 0.01 0.01 0.01 0.01 0.97 0.01 0.97 0.01 0.01 0.01 0.97 0.01 0.01 0.01 0.3 0.68 0.01 0.01 0.97 0.01 0.01 0.01 0.01 0.01 0.01 0.97 </TABLE>
  </DEFINITION>

  <DEFINITION>
    <FOR>ARTCO2</FOR>
    <GIVEN>VENTALV</GIVEN>
    <TABLE>0.01 0.01 0.98 0.01 0.01 0.98 0.04 0.92 0.04 0.9 0.09 0.01 </TABLE>
  </DEFINITION>

  <DEFINITION>
    <FOR>MINVOL_E</FOR>
    <GIVEN>INTUBATION</GIVEN>
    <GIVEN>VENTLUNG</GIVEN>
    <TABLE>0.97 0.01 0.01 0.01 0.01 0.01 0.01 0.97 0.5 0.48 0.01 0.01 0.01 0.97 0.01 0.01 0.01 0.97 0.01 0.01 0.97 0.01 0.01 0.01 0.5 0.48 0.01 0.01 0.01 0.01 0.97 0.01 0.01 0.01 0.97 0.01 0.6 0.38 0.01 0.01 0.97 0.01 0.01 0.01 0.01 0.01 0.01 0.97 </TABLE>
  </DEFINITION>

  <DEFINITION>
    <FOR>SHUNT</FOR>
    <GIVEN>INTUBATION</GIVEN>
    <GIVEN>PULMEMBOLUS</GIVEN>
    <TABLE>0.1 0.9 0.95 0.05 0.1 0.9 0.95 0.05 0.01 0.99 0.05 0.95 </TABLE>
  </DEFINITION>

  <DEFINITION>
    <FOR>EXPCO2_E</FOR>
    <GIVEN>ARTCO2</GIVEN>
    <GIVEN>VENTLUNG</GIVEN>
    <TABLE>0.97 0.01 0.01 0.01 0.01 0.97 0.01 0.01 0.01 0.01 0.97 0.01 0.01 0.01 0.01 0.97 0.01 0.97 0.01 0.01 0.97 0.01 0.01 0.01 0.01 0.01 0.97 0.01 0.01 0.01 0.01 0.97 0.01 0.97 0.01 0.01 0.01 0.01 0.97 0.01 0.97 0.01 0.01 0.01 0.01 0.01 0.01 0.97 </TABLE>
  </DEFINITION>

  <DEFINITION>
    <FOR>TPR</FOR>
    <GIVEN>ANAPHYLAXIS</GIVEN>
    <TABLE>0.98 0.01 0.01 0.3 0.4 0.3 </TABLE>
  </DEFINITION>

  <DEFINITION>
    <FOR>ERRCAUTER_0</FOR>
    <TABLE>0.1 0.9 </TABLE>
  </DEFINITION>

  <DEFINITION>
    <FOR>LVFAILURE</FOR>
    <GIVEN>LVFAILURE_0</GIVEN>
    <GIVEN>HYPOVOLEMIA_0</GIVEN>
    <TABLE>0.61 0.39 0.3 0.7 0.8 0.2 0.30500000000000005 0.695 </TABLE>
  </DEFINITION>

  <DEFINITION>
    <FOR>HISTORY_E</FOR>
    <GIVEN>LVFAILURE</GIVEN>
    <TABLE>0.9 0.1 0.01 0.99 </TABLE>
  </DEFINITION>

  <DEFINITION>
    <FOR>INTUBATION</FOR>
    <GIVEN>INTUBATION_0</GIVEN>
    <GIVEN>PULMEMBOLUS_0</GIVEN>
    <TABLE>0.92 0.03 0.05 0.92 0.03 0.05 0.92 0.03 0.05 0.92 0.03 0.05 0.92 0.03 0.05 0.92 0.03 0.05 </TABLE>
  </DEFINITION>

  <DEFINITION>
    <FOR>INSUFFANESTH_0</FOR>
    <TABLE>0.1 0.9 </TABLE>
  </DEFINITION>

  <DEFINITION>
    <FOR>CO</FOR>
    <GIVEN>HR</GIVEN>
    <GIVEN>STROKEVOLUME</GIVEN>
    <TABLE>0.98 0.01 0.01 0.95 0.04 0.01 0.3 0.69 0.01 0.95 0.04 0.01 0.04 0.95 0.01 0.01 0.3 0.69 0.8 0.19 0.01 0.01 0.04 0.95 0.01 0.01 0.98 </TABLE>
  </DEFINITION>

  <DEFINITION>
    <FOR>DISCONNECT_0</FOR>
    <TABLE>0.1 0.9 </TABLE>
  </DEFINITION>

  <DEFINITION>
    <FOR>PULMEMBOLUS</FOR>
    <GIVEN>PULMEMBOLUS_0</GIVEN>
    <TABLE>0.9 0.1 0.3 0.7 </TABLE>
  </DEFINITION>

  <DEFINITION>
    <FOR>LVEDVOLUME</FOR>
    <GIVEN>HYPOVOLEMIA</GIVEN>
    <GIVEN>LVFAILURE</GIVEN>
    <TABLE>0.95 0.04 0.01 0.01 0.09 0.9 0.98 0.01 0.01 0.05 0.9 0.05 </TABLE>
  </DEFINITION>

  <DEFINITION>
    <FOR>STROKEVOLUME</FOR>
    <GIVEN>HYPOVOLEMIA</GIVEN>
    <GIVEN>LVFAILURE</GIVEN>
    <TABLE>0.98 0.01 0.01 0.5 0.49 0.01 0.95 0.04 0.01 0.05 0.9 0.05 </TABLE>
  </DEFINITION>

  <DEFINITION>
    <FOR>HYPOVOLEMIA</FOR>
    <GIVEN>HYPOVOLEMIA_0</GIVEN>
    <TABLE>0.67 0.33 0.55 0.45 </TABLE>
  </DEFINITION>

  <DEFINITION>
    <FOR>ERRLOWOUTPUT_0</FOR>
    <TABLE>0.05 0.95 </TABLE>
  </DEFINITION>

  <DEFINITION>
    <FOR>HR</FOR>
    <GIVEN>CATECHOL</GIVEN>
    <TABLE>0.05 0.9 0.05 0.01 0.09 0.9 </TABLE>
  </DEFINITION>

</NETWORK>
</BIF>
