net
{
	propagationenginegenerator1791944048146838126L = "edu.ucla.belief.approx.BeliefPropagationSettings@42056497";
	recoveryenginegenerator6944530267470113528l = "edu.ucla.util.SettingsImpl@4b940a52";
	node_size = (130 55);
}

node LungParench_0
{
	states = ("Normal" "Congested" "Abnormal" );
	position = (600 32);
	ismapvariable = "false";
	diagnosistype = "AUXILIARY";
	excludepolicy = "include whole CPT";
}
node LVHreport_E
{
	states = ("yes" "no" );
	position = (987 -179);
	ismapvariable = "false";
	diagnosistype = "AUXILIARY";
	excludepolicy = "include whole CPT";
}
node DuctFlow_0
{
	states = ("Lt_to_Rt" "None" "Rt_to_Lt" );
	position = (264 20);
	ismapvariable = "false";
	diagnosistype = "AUXILIARY";
	excludepolicy = "include whole CPT";
}
node XrayReport_E
{
	states = ("Normal" "Oligaemic" "Plethoric" "Grd_Glass" "Asy/Patchy" );
	position = (836 -343);
	ismapvariable = "false";
	diagnosistype = "AUXILIARY";
	excludepolicy = "include whole CPT";
}
node LVH
{
	states = ("yes" "no" );
	position = (894 -85);
	ismapvariable = "false";
	diagnosistype = "AUXILIARY";
	excludepolicy = "include whole CPT";
}
node RUQO2_E
{
	states = ("<5" "5-12" "12+" );
	position = (527 -340);
	ismapvariable = "false";
	diagnosistype = "AUXILIARY";
	excludepolicy = "include whole CPT";
}
node LungParench
{
	states = ("Normal" "Congested" "Abnormal" );
	position = (596 -84);
	ismapvariable = "false";
	diagnosistype = "AUXILIARY";
	excludepolicy = "include whole CPT";
}
node CO2
{
	states = ("Normal" "Low" "High" );
	position = (677 -179);
	ismapvariable = "false";
	diagnosistype = "AUXILIARY";
	excludepolicy = "include whole CPT";
}
node Age_E
{
	states = ("0-3_days" "4-10_days" "11-30_days" );
	position = (15 -178);
	ismapvariable = "false";
	diagnosistype = "AUXILIARY";
	excludepolicy = "include whole CPT";
}
node Sick
{
	states = ("yes" "no" );
	position = (97 -81);
	ismapvariable = "false";
	diagnosistype = "AUXILIARY";
	excludepolicy = "include whole CPT";
}
node CardiacMixing
{
	states = ("None" "Mild" "Complete" "Transp." );
	position = (443 -82);
	ismapvariable = "false";
	diagnosistype = "AUXILIARY";
	excludepolicy = "include whole CPT";
}
node ChestXray
{
	states = ("Normal" "Oligaemic" "Plethoric" "Grd_Glass" "Asy/Patch" );
	position = (832 -180);
	ismapvariable = "false";
	diagnosistype = "AUXILIARY";
	excludepolicy = "include whole CPT";
}
node HypDistrib
{
	states = ("Equal" "Unequal" );
	position = (382 -179);
	ismapvariable = "false";
	diagnosistype = "AUXILIARY";
	excludepolicy = "include whole CPT";
}
node Grunting
{
	states = ("yes" "no" );
	position = (218 -175);
	ismapvariable = "false";
	diagnosistype = "AUXILIARY";
	excludepolicy = "include whole CPT";
}
node LVH_0
{
	states = ("yes" "no" );
	position = (917 19);
	ismapvariable = "false";
	diagnosistype = "AUXILIARY";
	excludepolicy = "include whole CPT";
}
node Sick_0
{
	states = ("yes" "no" );
	position = (96 28);
	ismapvariable = "false";
	diagnosistype = "AUXILIARY";
	excludepolicy = "include whole CPT";
}
node LungFlow
{
	states = ("Normal" "Low" "High" );
	position = (740 -86);
	ismapvariable = "false";
	diagnosistype = "AUXILIARY";
	excludepolicy = "include whole CPT";
}
node CardiacMixing_0
{
	states = ("None" "Mild" "Complete" "Transp." );
	position = (446 28);
	ismapvariable = "false";
	diagnosistype = "AUXILIARY";
	excludepolicy = "include whole CPT";
}
node DuctFlow
{
	states = ("Lt_to_Rt" "None" "Rt_to_Lt" );
	position = (261 -79);
	ismapvariable = "false";
	diagnosistype = "AUXILIARY";
	excludepolicy = "include whole CPT";
}
node GruntingReport_E
{
	states = ("yes" "no" );
	position = (218 -336);
	ismapvariable = "false";
	diagnosistype = "AUXILIARY";
	excludepolicy = "include whole CPT";
}
node LowerBodyO2_E
{
	states = ("<5" "5-12" "12+" );
	position = (369 -341);
	ismapvariable = "false";
	diagnosistype = "AUXILIARY";
	excludepolicy = "include whole CPT";
}
node HypoxiaInO2
{
	states = ("Mild" "Moderate" "Severe" );
	position = (529 -178);
	ismapvariable = "false";
	diagnosistype = "AUXILIARY";
	excludepolicy = "include whole CPT";
}
node CO2Report_E
{
	states = ("<7.5" ">=7.5" );
	position = (679 -340);
	ismapvariable = "false";
	diagnosistype = "AUXILIARY";
	excludepolicy = "include whole CPT";
}
node LungFlow_0
{
	states = ("Normal" "Low" "High" );
	position = (764 29);
	ismapvariable = "false";
	diagnosistype = "AUXILIARY";
	excludepolicy = "include whole CPT";
}
potential ( LungParench_0 | )
{
	data = (	0.5216666666666666	0.18333333333333335	0.295	);
}
potential ( LVHreport_E | LVH )
{
	data = ((	0.9	0.1	)
		(	0.05	0.95	));
}
potential ( DuctFlow_0 | )
{
	data = (	0.43	0.2966666666666667	0.2733333333333334	);
}
potential ( XrayReport_E | ChestXray )
{
	data = ((	0.7999999999999998	0.059999999999999984	0.059999999999999984	0.019999999999999997	0.059999999999999984	)
		(	0.1	0.8	0.02	0.02	0.06	)
		(	0.1	0.02	0.8	0.02	0.06	)
		(	0.08	0.02	0.1	0.6	0.2	)
		(	0.08	0.02	0.1	0.1	0.7	));
}
potential ( LVH | LVH_0 DuctFlow_0 )
{
	data = (((	0.3	0.7	)
		(	0.42	0.58	)
		(	0.62	0.38	))
		((	0.27	0.73	)
		(	0.68	0.32	)
		(	0.35	0.65	)));
}
potential ( RUQO2_E | HypoxiaInO2 )
{
	data = ((	0.1	0.3	0.6	)
		(	0.30000000000000004	0.6000000000000001	0.10000000000000002	)
		(	0.5	0.4	0.1	));
}
potential ( LungParench | LungParench_0 LungFlow_0 )
{
	data = (((	0.5216666666666666	0.18333333333333335	0.295	)
		(	0.31	0.19	0.5	)
		(	0.7	0.25	0.05	))
		((	0.15	0.15	0.7	)
		(	0.3	0.3	0.4	)
		(	0.32	0.18	0.5	))
		((	0.8	0.07	0.13	)
		(	0.41	0.19	0.4	)
		(	0.86	0.04	0.1	)));
}
potential ( CO2 | LungParench )
{
	data = ((	0.8	0.1	0.1	)
		(	0.65	0.05	0.3	)
		(	0.45	0.05	0.5	));
}
potential ( Age_E | Sick )
{
	data = ((	0.8250000000000001	0.11833333333333333	0.05666666666666667	)
		(	0.6833333333333335	0.17500000000000002	0.1416666666666667	));
}
potential ( Sick | CardiacMixing_0 Sick_0 )
{
	data = (((	0.7	0.3	)
		(	0.45	0.55	))
		((	0.35	0.65	)
		(	0.43	0.57	))
		((	0.25	0.75	)
		(	0.41	0.59	))
		((	0.4	0.6	)
		(	0.33	0.67	)));
}
potential ( CardiacMixing | CardiacMixing_0 Sick_0 )
{
	data = (((	0.14333333333333334	0.21000000000000005	0.4983333333333333	0.14833333333333334	)
		(	0.22	0.2	0.32	0.26	))
		((	0.3	0.1	0.25	0.35	)
		(	0.15	0.15	0.4	0.3	))
		((	0.33	0.33	0.04	0.3	)
		(	0.11	0.22	0.33	0.34	))
		((	0.08	0.09	0.03	0.8	)
		(	0.44	0.11	0.05	0.4	)));
}
potential ( ChestXray | LungParench LungFlow )
{
	data = (((	0.9	0.03	0.03	0.01	0.03	)
		(	0.14	0.8	0.02	0.02	0.02	)
		(	0.15	0.01	0.79	0.04	0.01	))
		((	0.05000000000000001	0.020000000000000004	0.15000000000000002	0.7000000000000001	0.08000000000000002	)
		(	0.05	0.22	0.08	0.5	0.15	)
		(	0.05	0.02	0.4	0.4	0.13	))
		((	0.05	0.05	0.05	0.05	0.8	)
		(	0.05	0.15	0.05	0.05	0.7	)
		(	0.23999999999999994	0.32999999999999996	0.029999999999999992	0.33999999999999997	0.059999999999999984	)));
}
potential ( HypDistrib | DuctFlow CardiacMixing )
{
	data = (((	0.95	0.05	)
		(	0.95	0.05	)
		(	0.95	0.05	)
		(	0.95	0.05	))
		((	0.95	0.05	)
		(	0.95	0.05	)
		(	0.95	0.05	)
		(	0.95	0.05	))
		((	0.05	0.95	)
		(	0.5	0.5	)
		(	0.95	0.05	)
		(	0.5	0.5	)));
}
potential ( Grunting | LungParench Sick )
{
	data = (((	0.2	0.8	)
		(	0.05	0.95	))
		((	0.4	0.6	)
		(	0.2	0.8	))
		((	0.8	0.2	)
		(	0.6	0.4	)));
}
potential ( LVH_0 | )
{
	data = (	0.22500000000000006	0.775	);
}
potential ( Sick_0 | )
{
	data = (	0.4333333333333333	0.5666666666666665	);
}
potential ( LungFlow | LungFlow_0 LVH_0 )
{
	data = (((	0.29	0.1	0.61	)
		(	0.44	0.44	0.12	))
		((	0.3	0.1	0.6	)
		(	0.67	0.23	0.1	))
		((	0.73	0.08	0.19	)
		(	0.74	0.05	0.21	)));
}
potential ( CardiacMixing_0 | )
{
	data = (	0.14333333333333334	0.21000000000000005	0.4983333333333333	0.14833333333333334	);
}
potential ( DuctFlow | DuctFlow_0 CardiacMixing_0 )
{
	data = (((	0.3	0.2	0.5	)
		(	0.43000000000000005	0.09999999999999998	0.47	)
		(	0.43	0.23	0.34	)
		(	0.31	0.09	0.6	))
		((	0.43	0.2966666666666667	0.2733333333333334	)
		(	0.43	0.3	0.27	)
		(	0.32	0.51	0.17	)
		(	0.43	0.3	0.27	))
		((	0.11	0.59	0.3	)
		(	0.21	0.29	0.5	)
		(	0.43	0.1	0.47	)
		(	0.2	0.7	0.1	)));
}
potential ( GruntingReport_E | Grunting )
{
	data = ((	0.8	0.2	)
		(	0.1	0.9	));
}
potential ( LowerBodyO2_E | HypDistrib HypoxiaInO2 )
{
	data = (((	0.1	0.3	0.6	)
		(	0.30000000000000004	0.6000000000000001	0.10000000000000002	)
		(	0.5	0.4	0.1	))
		((	0.4	0.5	0.1	)
		(	0.5	0.45	0.05	)
		(	0.6	0.35	0.05	)));
}
potential ( HypoxiaInO2 | CardiacMixing LungParench )
{
	data = (((	0.93	0.05	0.02	)
		(	0.15	0.8	0.05	)
		(	0.7000000000000001	0.20000000000000004	0.10000000000000002	))
		((	0.1	0.8	0.1	)
		(	0.1	0.75	0.15	)
		(	0.1	0.65	0.25	))
		((	0.1	0.7	0.2	)
		(	0.05	0.65	0.3	)
		(	0.1	0.5	0.4	))
		((	0.02	0.18	0.8	)
		(	0.1	0.3	0.6	)
		(	0.02	0.18	0.8	)));
}
potential ( CO2Report_E | CO2 )
{
	data = ((	0.9	0.1	)
		(	0.9	0.1	)
		(	0.1	0.9	));
}
potential ( LungFlow_0 | )
{
	data = (	0.2916666666666667	0.42500000000000004	0.2833333333333333	);
}
