<?xml version="1.0" encoding="US-ASCII"?>

<!--
  Bayesian network in XMLBIF v0.3 (BayesNet Interchange Format)
  Produced by SamIam http://reasoning.cs.ucla.edu/samiam
  Output created 3-giu-2020 23.45.04
-->

<BIF VERSION="0.3">
<NETWORK>
  <NAME>bayesiannetwork</NAME>

  <VARIABLE TYPE="nature">
    <NAME>LungParench_0</NAME>
    <OUTCOME>Normal</OUTCOME>
    <OUTCOME>Congested</OUTCOME>
    <OUTCOME>Abnormal</OUTCOME>
    <PROPERTY>position = (600, 32)</PROPERTY>
  </VARIABLE>

  <VARIABLE TYPE="nature">
    <NAME>LVHreport_E</NAME>
    <OUTCOME>yes</OUTCOME>
    <OUTCOME>no</OUTCOME>
    <PROPERTY>position = (987, -179)</PROPERTY>
  </VARIABLE>

  <VARIABLE TYPE="nature">
    <NAME>DuctFlow_0</NAME>
    <OUTCOME>Lt_to_Rt</OUTCOME>
    <OUTCOME>None</OUTCOME>
    <OUTCOME>Rt_to_Lt</OUTCOME>
    <PROPERTY>position = (264, 20)</PROPERTY>
  </VARIABLE>

  <VARIABLE TYPE="nature">
    <NAME>XrayReport_E</NAME>
    <OUTCOME>Normal</OUTCOME>
    <OUTCOME>Oligaemic</OUTCOME>
    <OUTCOME>Plethoric</OUTCOME>
    <OUTCOME>Grd_Glass</OUTCOME>
    <OUTCOME>Asy/Patchy</OUTCOME>
    <PROPERTY>position = (836, -343)</PROPERTY>
  </VARIABLE>

  <VARIABLE TYPE="nature">
    <NAME>LVH</NAME>
    <OUTCOME>yes</OUTCOME>
    <OUTCOME>no</OUTCOME>
    <PROPERTY>position = (894, -85)</PROPERTY>
  </VARIABLE>

  <VARIABLE TYPE="nature">
    <NAME>RUQO2_E</NAME>
    <OUTCOME><![CDATA[<5]]></OUTCOME>
    <OUTCOME>5-12</OUTCOME>
    <OUTCOME>12+</OUTCOME>
    <PROPERTY>position = (527, -340)</PROPERTY>
  </VARIABLE>

  <VARIABLE TYPE="nature">
    <NAME>LungParench</NAME>
    <OUTCOME>Normal</OUTCOME>
    <OUTCOME>Congested</OUTCOME>
    <OUTCOME>Abnormal</OUTCOME>
    <PROPERTY>position = (596, -84)</PROPERTY>
  </VARIABLE>

  <VARIABLE TYPE="nature">
    <NAME>CO2</NAME>
    <OUTCOME>Normal</OUTCOME>
    <OUTCOME>Low</OUTCOME>
    <OUTCOME>High</OUTCOME>
    <PROPERTY>position = (677, -179)</PROPERTY>
  </VARIABLE>

  <VARIABLE TYPE="nature">
    <NAME>Age_E</NAME>
    <OUTCOME>0-3_days</OUTCOME>
    <OUTCOME>4-10_days</OUTCOME>
    <OUTCOME>11-30_days</OUTCOME>
    <PROPERTY>position = (15, -178)</PROPERTY>
  </VARIABLE>

  <VARIABLE TYPE="nature">
    <NAME>Sick</NAME>
    <OUTCOME>yes</OUTCOME>
    <OUTCOME>no</OUTCOME>
    <PROPERTY>position = (97, -81)</PROPERTY>
  </VARIABLE>

  <VARIABLE TYPE="nature">
    <NAME>CardiacMixing</NAME>
    <OUTCOME>None</OUTCOME>
    <OUTCOME>Mild</OUTCOME>
    <OUTCOME>Complete</OUTCOME>
    <OUTCOME>Transp.</OUTCOME>
    <PROPERTY>position = (443, -82)</PROPERTY>
  </VARIABLE>

  <VARIABLE TYPE="nature">
    <NAME>ChestXray</NAME>
    <OUTCOME>Normal</OUTCOME>
    <OUTCOME>Oligaemic</OUTCOME>
    <OUTCOME>Plethoric</OUTCOME>
    <OUTCOME>Grd_Glass</OUTCOME>
    <OUTCOME>Asy/Patch</OUTCOME>
    <PROPERTY>position = (832, -180)</PROPERTY>
  </VARIABLE>

  <VARIABLE TYPE="nature">
    <NAME>HypDistrib</NAME>
    <OUTCOME>Equal</OUTCOME>
    <OUTCOME>Unequal</OUTCOME>
    <PROPERTY>position = (382, -179)</PROPERTY>
  </VARIABLE>

  <VARIABLE TYPE="nature">
    <NAME>Grunting</NAME>
    <OUTCOME>yes</OUTCOME>
    <OUTCOME>no</OUTCOME>
    <PROPERTY>position = (218, -175)</PROPERTY>
  </VARIABLE>

  <VARIABLE TYPE="nature">
    <NAME>LVH_0</NAME>
    <OUTCOME>yes</OUTCOME>
    <OUTCOME>no</OUTCOME>
    <PROPERTY>position = (917, 19)</PROPERTY>
  </VARIABLE>

  <VARIABLE TYPE="nature">
    <NAME>Sick_0</NAME>
    <OUTCOME>yes</OUTCOME>
    <OUTCOME>no</OUTCOME>
    <PROPERTY>position = (96, 28)</PROPERTY>
  </VARIABLE>

  <VARIABLE TYPE="nature">
    <NAME>LungFlow</NAME>
    <OUTCOME>Normal</OUTCOME>
    <OUTCOME>Low</OUTCOME>
    <OUTCOME>High</OUTCOME>
    <PROPERTY>position = (740, -86)</PROPERTY>
  </VARIABLE>

  <VARIABLE TYPE="nature">
    <NAME>CardiacMixing_0</NAME>
    <OUTCOME>None</OUTCOME>
    <OUTCOME>Mild</OUTCOME>
    <OUTCOME>Complete</OUTCOME>
    <OUTCOME>Transp.</OUTCOME>
    <PROPERTY>position = (446, 28)</PROPERTY>
  </VARIABLE>

  <VARIABLE TYPE="nature">
    <NAME>DuctFlow</NAME>
    <OUTCOME>Lt_to_Rt</OUTCOME>
    <OUTCOME>None</OUTCOME>
    <OUTCOME>Rt_to_Lt</OUTCOME>
    <PROPERTY>position = (261, -79)</PROPERTY>
  </VARIABLE>

  <VARIABLE TYPE="nature">
    <NAME>GruntingReport_E</NAME>
    <OUTCOME>yes</OUTCOME>
    <OUTCOME>no</OUTCOME>
    <PROPERTY>position = (218, -336)</PROPERTY>
  </VARIABLE>

  <VARIABLE TYPE="nature">
    <NAME>LowerBodyO2_E</NAME>
    <OUTCOME><![CDATA[<5]]></OUTCOME>
    <OUTCOME>5-12</OUTCOME>
    <OUTCOME>12+</OUTCOME>
    <PROPERTY>position = (369, -341)</PROPERTY>
  </VARIABLE>

  <VARIABLE TYPE="nature">
    <NAME>HypoxiaInO2</NAME>
    <OUTCOME>Mild</OUTCOME>
    <OUTCOME>Moderate</OUTCOME>
    <OUTCOME>Severe</OUTCOME>
    <PROPERTY>position = (529, -178)</PROPERTY>
  </VARIABLE>

  <VARIABLE TYPE="nature">
    <NAME>CO2Report_E</NAME>
    <OUTCOME><![CDATA[<7.5]]></OUTCOME>
    <OUTCOME>>=7.5</OUTCOME>
    <PROPERTY>position = (679, -340)</PROPERTY>
  </VARIABLE>

  <VARIABLE TYPE="nature">
    <NAME>LungFlow_0</NAME>
    <OUTCOME>Normal</OUTCOME>
    <OUTCOME>Low</OUTCOME>
    <OUTCOME>High</OUTCOME>
    <PROPERTY>position = (764, 29)</PROPERTY>
  </VARIABLE>

  <DEFINITION>
    <FOR>LungParench_0</FOR>
    <TABLE>0.5216666666666666 0.18333333333333335 0.295 </TABLE>
  </DEFINITION>

  <DEFINITION>
    <FOR>LVHreport_E</FOR>
    <GIVEN>LVH</GIVEN>
    <TABLE>0.9 0.1 0.05 0.95 </TABLE>
  </DEFINITION>

  <DEFINITION>
    <FOR>DuctFlow_0</FOR>
    <TABLE>0.43 0.2966666666666667 0.2733333333333334 </TABLE>
  </DEFINITION>

  <DEFINITION>
    <FOR>XrayReport_E</FOR>
    <GIVEN>ChestXray</GIVEN>
    <TABLE>0.7999999999999998 0.059999999999999984 0.059999999999999984 0.019999999999999997 0.059999999999999984 0.1 0.8 0.02 0.02 0.06 0.1 0.02 0.8 0.02 0.06 0.08 0.02 0.1 0.6 0.2 0.08 0.02 0.1 0.1 0.7 </TABLE>
  </DEFINITION>

  <DEFINITION>
    <FOR>LVH</FOR>
    <GIVEN>LVH_0</GIVEN>
    <GIVEN>DuctFlow_0</GIVEN>
    <TABLE>0.3 0.7 0.42 0.58 0.62 0.38 0.27 0.73 0.68 0.32 0.35 0.65 </TABLE>
  </DEFINITION>

  <DEFINITION>
    <FOR>RUQO2_E</FOR>
    <GIVEN>HypoxiaInO2</GIVEN>
    <TABLE>0.1 0.3 0.6 0.30000000000000004 0.6000000000000001 0.10000000000000002 0.5 0.4 0.1 </TABLE>
  </DEFINITION>

  <DEFINITION>
    <FOR>LungParench</FOR>
    <GIVEN>LungParench_0</GIVEN>
    <GIVEN>LungFlow_0</GIVEN>
    <TABLE>0.5216666666666666 0.18333333333333335 0.295 0.31 0.19 0.5 0.7 0.25 0.05 0.15 0.15 0.7 0.3 0.3 0.4 0.32 0.18 0.5 0.8 0.07 0.13 0.41 0.19 0.4 0.86 0.04 0.1 </TABLE>
  </DEFINITION>

  <DEFINITION>
    <FOR>CO2</FOR>
    <GIVEN>LungParench</GIVEN>
    <TABLE>0.8 0.1 0.1 0.65 0.05 0.3 0.45 0.05 0.5 </TABLE>
  </DEFINITION>

  <DEFINITION>
    <FOR>Age_E</FOR>
    <GIVEN>Sick</GIVEN>
    <TABLE>0.8250000000000001 0.11833333333333333 0.05666666666666667 0.6833333333333335 0.17500000000000002 0.1416666666666667 </TABLE>
  </DEFINITION>

  <DEFINITION>
    <FOR>Sick</FOR>
    <GIVEN>CardiacMixing_0</GIVEN>
    <GIVEN>Sick_0</GIVEN>
    <TABLE>0.7 0.3 0.45 0.55 0.35 0.65 0.43 0.57 0.25 0.75 0.41 0.59 0.4 0.6 0.33 0.67 </TABLE>
  </DEFINITION>

  <DEFINITION>
    <FOR>CardiacMixing</FOR>
    <GIVEN>CardiacMixing_0</GIVEN>
    <GIVEN>Sick_0</GIVEN>
    <TABLE>0.14333333333333334 0.21000000000000005 0.4983333333333333 0.14833333333333334 0.22 0.2 0.32 0.26 0.3 0.1 0.25 0.35 0.15 0.15 0.4 0.3 0.33 0.33 0.04 0.3 0.11 0.22 0.33 0.34 0.08 0.09 0.03 0.8 0.44 0.11 0.05 0.4 </TABLE>
  </DEFINITION>

  <DEFINITION>
    <FOR>ChestXray</FOR>
    <GIVEN>LungParench</GIVEN>
    <GIVEN>LungFlow</GIVEN>
    <TABLE>0.9 0.03 0.03 0.01 0.03 0.14 0.8 0.02 0.02 0.02 0.15 0.01 0.79 0.04 0.01 0.05000000000000001 0.020000000000000004 0.15000000000000002 0.7000000000000001 0.08000000000000002 0.05 0.22 0.08 0.5 0.15 0.05 0.02 0.4 0.4 0.13 0.05 0.05 0.05 0.05 0.8 0.05 0.15 0.05 0.05 0.7 0.23999999999999994 0.32999999999999996 0.029999999999999992 0.33999999999999997 0.059999999999999984 </TABLE>
  </DEFINITION>

  <DEFINITION>
    <FOR>HypDistrib</FOR>
    <GIVEN>DuctFlow</GIVEN>
    <GIVEN>CardiacMixing</GIVEN>
    <TABLE>0.95 0.05 0.95 0.05 0.95 0.05 0.95 0.05 0.95 0.05 0.95 0.05 0.95 0.05 0.95 0.05 0.05 0.95 0.5 0.5 0.95 0.05 0.5 0.5 </TABLE>
  </DEFINITION>

  <DEFINITION>
    <FOR>Grunting</FOR>
    <GIVEN>LungParench</GIVEN>
    <GIVEN>Sick</GIVEN>
    <TABLE>0.2 0.8 0.05 0.95 0.4 0.6 0.2 0.8 0.8 0.2 0.6 0.4 </TABLE>
  </DEFINITION>

  <DEFINITION>
    <FOR>LVH_0</FOR>
    <TABLE>0.22500000000000006 0.775 </TABLE>
  </DEFINITION>

  <DEFINITION>
    <FOR>Sick_0</FOR>
    <TABLE>0.4333333333333333 0.5666666666666665 </TABLE>
  </DEFINITION>

  <DEFINITION>
    <FOR>LungFlow</FOR>
    <GIVEN>LungFlow_0</GIVEN>
    <GIVEN>LVH_0</GIVEN>
    <TABLE>0.29 0.1 0.61 0.44 0.44 0.12 0.3 0.1 0.6 0.67 0.23 0.1 0.73 0.08 0.19 0.74 0.05 0.21 </TABLE>
  </DEFINITION>

  <DEFINITION>
    <FOR>CardiacMixing_0</FOR>
    <TABLE>0.14333333333333334 0.21000000000000005 0.4983333333333333 0.14833333333333334 </TABLE>
  </DEFINITION>

  <DEFINITION>
    <FOR>DuctFlow</FOR>
    <GIVEN>DuctFlow_0</GIVEN>
    <GIVEN>CardiacMixing_0</GIVEN>
    <TABLE>0.3 0.2 0.5 0.43000000000000005 0.09999999999999998 0.47 0.43 0.23 0.34 0.31 0.09 0.6 0.43 0.2966666666666667 0.2733333333333334 0.43 0.3 0.27 0.32 0.51 0.17 0.43 0.3 0.27 0.11 0.59 0.3 0.21 0.29 0.5 0.43 0.1 0.47 0.2 0.7 0.1 </TABLE>
  </DEFINITION>

  <DEFINITION>
    <FOR>GruntingReport_E</FOR>
    <GIVEN>Grunting</GIVEN>
    <TABLE>0.8 0.2 0.1 0.9 </TABLE>
  </DEFINITION>

  <DEFINITION>
    <FOR>LowerBodyO2_E</FOR>
    <GIVEN>HypDistrib</GIVEN>
    <GIVEN>HypoxiaInO2</GIVEN>
    <TABLE>0.1 0.3 0.6 0.30000000000000004 0.6000000000000001 0.10000000000000002 0.5 0.4 0.1 0.4 0.5 0.1 0.5 0.45 0.05 0.6 0.35 0.05 </TABLE>
  </DEFINITION>

  <DEFINITION>
    <FOR>HypoxiaInO2</FOR>
    <GIVEN>CardiacMixing</GIVEN>
    <GIVEN>LungParench</GIVEN>
    <TABLE>0.93 0.05 0.02 0.15 0.8 0.05 0.7000000000000001 0.20000000000000004 0.10000000000000002 0.1 0.8 0.1 0.1 0.75 0.15 0.1 0.65 0.25 0.1 0.7 0.2 0.05 0.65 0.3 0.1 0.5 0.4 0.02 0.18 0.8 0.1 0.3 0.6 0.02 0.18 0.8 </TABLE>
  </DEFINITION>

  <DEFINITION>
    <FOR>CO2Report_E</FOR>
    <GIVEN>CO2</GIVEN>
    <TABLE>0.9 0.1 0.9 0.1 0.1 0.9 </TABLE>
  </DEFINITION>

  <DEFINITION>
    <FOR>LungFlow_0</FOR>
    <TABLE>0.2916666666666667 0.42500000000000004 0.2833333333333333 </TABLE>
  </DEFINITION>

</NETWORK>
</BIF>
