<?xml version="1.0" encoding="US-ASCII"?>

<!--
  Bayesian network in XMLBIF v0.3 (BayesNet Interchange Format)
  Produced by SamIam http://reasoning.cs.ucla.edu/samiam
  Output created 6-giu-2020 17.18.24
-->

<BIF VERSION="0.3">
<NETWORK>
  <NAME>InternalNetwork</NAME>

  <VARIABLE TYPE="nature">
    <NAME>node20</NAME>
    <OUTCOME>state0</OUTCOME>
    <OUTCOME>state1</OUTCOME>
    <PROPERTY>position = (855, 135)</PROPERTY>
  </VARIABLE>

  <VARIABLE TYPE="nature">
    <NAME>node23</NAME>
    <OUTCOME>state0</OUTCOME>
    <OUTCOME>state1</OUTCOME>
    <PROPERTY>position = (405, 15)</PROPERTY>
  </VARIABLE>

  <VARIABLE TYPE="nature">
    <NAME>node27</NAME>
    <OUTCOME>state0</OUTCOME>
    <OUTCOME>state1</OUTCOME>
    <PROPERTY>position = (15, 630)</PROPERTY>
  </VARIABLE>

  <VARIABLE TYPE="nature">
    <NAME>node15_0</NAME>
    <OUTCOME>state0</OUTCOME>
    <OUTCOME>state1</OUTCOME>
    <PROPERTY>position = (0, 0)</PROPERTY>
  </VARIABLE>

  <VARIABLE TYPE="nature">
    <NAME>node4</NAME>
    <OUTCOME>state0</OUTCOME>
    <OUTCOME>state1</OUTCOME>
    <PROPERTY>position = (15, 390)</PROPERTY>
  </VARIABLE>

  <VARIABLE TYPE="nature">
    <NAME>node25</NAME>
    <OUTCOME>state0</OUTCOME>
    <OUTCOME>state1</OUTCOME>
    <PROPERTY>position = (525, 29)</PROPERTY>
  </VARIABLE>

  <VARIABLE TYPE="nature">
    <NAME>node5</NAME>
    <OUTCOME>state0</OUTCOME>
    <OUTCOME>state1</OUTCOME>
    <PROPERTY>position = (44, 270)</PROPERTY>
  </VARIABLE>

  <VARIABLE TYPE="nature">
    <NAME>node18</NAME>
    <OUTCOME>state0</OUTCOME>
    <OUTCOME>state1</OUTCOME>
    <PROPERTY>position = (275, -14)</PROPERTY>
  </VARIABLE>

  <VARIABLE TYPE="nature">
    <NAME>node6_E</NAME>
    <OUTCOME>state0</OUTCOME>
    <OUTCOME>state1</OUTCOME>
    <PROPERTY>position = (164, 524)</PROPERTY>
  </VARIABLE>

  <VARIABLE TYPE="nature">
    <NAME>node15</NAME>
    <OUTCOME>state0</OUTCOME>
    <OUTCOME>state1</OUTCOME>
    <PROPERTY>position = (179, 72)</PROPERTY>
  </VARIABLE>

  <VARIABLE TYPE="nature">
    <NAME>node31</NAME>
    <OUTCOME>state0</OUTCOME>
    <OUTCOME>state1</OUTCOME>
    <PROPERTY>position = (645, 44)</PROPERTY>
  </VARIABLE>

  <VARIABLE TYPE="nature">
    <NAME>node24_E</NAME>
    <OUTCOME>state0</OUTCOME>
    <OUTCOME>state1</OUTCOME>
    <PROPERTY>position = (505, 527)</PROPERTY>
  </VARIABLE>

  <VARIABLE TYPE="nature">
    <NAME>node22_E</NAME>
    <OUTCOME>state0</OUTCOME>
    <OUTCOME>state1</OUTCOME>
    <PROPERTY>position = (375, 375)</PROPERTY>
  </VARIABLE>

  <VARIABLE TYPE="nature">
    <NAME>node16</NAME>
    <OUTCOME>state0</OUTCOME>
    <OUTCOME>state1</OUTCOME>
    <PROPERTY>position = (615, 164)</PROPERTY>
  </VARIABLE>

  <VARIABLE TYPE="nature">
    <NAME>node11</NAME>
    <OUTCOME>state0</OUTCOME>
    <OUTCOME>state1</OUTCOME>
    <PROPERTY>position = (375, 135)</PROPERTY>
  </VARIABLE>

  <VARIABLE TYPE="nature">
    <NAME>node8</NAME>
    <OUTCOME>state0</OUTCOME>
    <OUTCOME>state1</OUTCOME>
    <PROPERTY>position = (146, 150)</PROPERTY>
  </VARIABLE>

  <VARIABLE TYPE="nature">
    <NAME>node23_0</NAME>
    <OUTCOME>state0</OUTCOME>
    <OUTCOME>state1</OUTCOME>
    <PROPERTY>position = (0, 0)</PROPERTY>
  </VARIABLE>

  <VARIABLE TYPE="nature">
    <NAME>node3</NAME>
    <OUTCOME>state0</OUTCOME>
    <OUTCOME>state1</OUTCOME>
    <PROPERTY>position = (135, 164)</PROPERTY>
  </VARIABLE>

  <VARIABLE TYPE="nature">
    <NAME>node31_0</NAME>
    <OUTCOME>state0</OUTCOME>
    <OUTCOME>state1</OUTCOME>
    <PROPERTY>position = (0, 0)</PROPERTY>
  </VARIABLE>

  <VARIABLE TYPE="nature">
    <NAME>node14</NAME>
    <OUTCOME>state0</OUTCOME>
    <OUTCOME>state1</OUTCOME>
    <PROPERTY>position = (404, 495)</PROPERTY>
  </VARIABLE>

  <VARIABLE TYPE="nature">
    <NAME>node2</NAME>
    <OUTCOME>state0</OUTCOME>
    <OUTCOME>state1</OUTCOME>
    <PROPERTY>position = (15, 150)</PROPERTY>
  </VARIABLE>

  <VARIABLE TYPE="nature">
    <NAME>node0</NAME>
    <OUTCOME>state0</OUTCOME>
    <OUTCOME>state1</OUTCOME>
    <PROPERTY>position = (46, 30)</PROPERTY>
  </VARIABLE>

  <VARIABLE TYPE="nature">
    <NAME>node19</NAME>
    <OUTCOME>state0</OUTCOME>
    <OUTCOME>state1</OUTCOME>
    <PROPERTY>position = (735, 150)</PROPERTY>
  </VARIABLE>

  <VARIABLE TYPE="nature">
    <NAME>node21</NAME>
    <OUTCOME>state0</OUTCOME>
    <OUTCOME>state1</OUTCOME>
    <PROPERTY>position = (404, 255)</PROPERTY>
  </VARIABLE>

  <VARIABLE TYPE="nature">
    <NAME>node17_E</NAME>
    <OUTCOME>state0</OUTCOME>
    <OUTCOME>state1</OUTCOME>
    <PROPERTY>position = (255, 390)</PROPERTY>
  </VARIABLE>

  <VARIABLE TYPE="nature">
    <NAME>node13</NAME>
    <OUTCOME>state0</OUTCOME>
    <OUTCOME>state1</OUTCOME>
    <PROPERTY>position = (495, 149)</PROPERTY>
  </VARIABLE>

  <VARIABLE TYPE="nature">
    <NAME>node25_0</NAME>
    <OUTCOME>state0</OUTCOME>
    <OUTCOME>state1</OUTCOME>
    <PROPERTY>position = (0, 0)</PROPERTY>
  </VARIABLE>

  <VARIABLE TYPE="nature">
    <NAME>node26</NAME>
    <OUTCOME>state0</OUTCOME>
    <OUTCOME>state1</OUTCOME>
    <PROPERTY>position = (524, 269)</PROPERTY>
  </VARIABLE>

  <VARIABLE TYPE="nature">
    <NAME>node7</NAME>
    <OUTCOME>state0</OUTCOME>
    <OUTCOME>state1</OUTCOME>
    <PROPERTY>position = (135, 404)</PROPERTY>
  </VARIABLE>

  <VARIABLE TYPE="nature">
    <NAME>node1</NAME>
    <OUTCOME>state0</OUTCOME>
    <OUTCOME>state1</OUTCOME>
    <PROPERTY>position = (44, 510)</PROPERTY>
  </VARIABLE>

  <VARIABLE TYPE="nature">
    <NAME>node9</NAME>
    <OUTCOME>state0</OUTCOME>
    <OUTCOME>state1</OUTCOME>
    <PROPERTY>position = (284, 510)</PROPERTY>
  </VARIABLE>

  <VARIABLE TYPE="nature">
    <NAME>node28</NAME>
    <OUTCOME>state0</OUTCOME>
    <OUTCOME>state1</OUTCOME>
    <PROPERTY>position = (44, 750)</PROPERTY>
  </VARIABLE>

  <VARIABLE TYPE="nature">
    <NAME>node10</NAME>
    <OUTCOME>state0</OUTCOME>
    <OUTCOME>state1</OUTCOME>
    <PROPERTY>position = (255, 150)</PROPERTY>
  </VARIABLE>

  <VARIABLE TYPE="nature">
    <NAME>node30</NAME>
    <OUTCOME>state0</OUTCOME>
    <OUTCOME>state1</OUTCOME>
    <PROPERTY>position = (975, 149)</PROPERTY>
  </VARIABLE>

  <VARIABLE TYPE="nature">
    <NAME>node18_0</NAME>
    <OUTCOME>state0</OUTCOME>
    <OUTCOME>state1</OUTCOME>
    <PROPERTY>position = (0, 0)</PROPERTY>
  </VARIABLE>

  <VARIABLE TYPE="nature">
    <NAME>node12</NAME>
    <OUTCOME>state0</OUTCOME>
    <OUTCOME>state1</OUTCOME>
    <PROPERTY>position = (284, 270)</PROPERTY>
  </VARIABLE>

  <VARIABLE TYPE="nature">
    <NAME>node29</NAME>
    <OUTCOME>state0</OUTCOME>
    <OUTCOME>state1</OUTCOME>
    <PROPERTY>position = (644, 524)</PROPERTY>
  </VARIABLE>

  <VARIABLE TYPE="nature">
    <NAME>node0_0</NAME>
    <OUTCOME>state0</OUTCOME>
    <OUTCOME>state1</OUTCOME>
    <PROPERTY>position = (0, 0)</PROPERTY>
  </VARIABLE>

  <DEFINITION>
    <FOR>node20</FOR>
    <GIVEN>node16</GIVEN>
    <TABLE>0.9719 0.0281 0.83 0.17 </TABLE>
  </DEFINITION>

  <DEFINITION>
    <FOR>node23</FOR>
    <GIVEN>node23_0</GIVEN>
    <TABLE>0.016 0.984 0.016 0.984 </TABLE>
  </DEFINITION>

  <DEFINITION>
    <FOR>node27</FOR>
    <GIVEN>node30</GIVEN>
    <GIVEN>node13</GIVEN>
    <GIVEN>node31</GIVEN>
    <GIVEN>node25</GIVEN>
    <GIVEN>node21</GIVEN>
    <TABLE>0.2716 0.7284 0.1871 0.8129 0.8149 0.1851 0.8303 0.1697 0.5937 0.4063 0.483 0.517 0.0964 0.9036 0.9845 0.0155 0.6422 0.3578 0.2087 0.7913 0.3181 0.6819 0.5235 0.4765 0.853 0.147 0.793 0.207 0.2585 0.7415 0.7614 0.2386 0.9995 5.0E-4 0.005 0.995 0.8302 0.1698 0.3542 0.6458 0.8714 0.1286 0.7206 0.2794 0.3981 0.6019 0.3323 0.6677 0.4027 0.5973 0.468 0.532 0.8827 0.1173 0.9615 0.0385 0.9828 0.0172 0.4062 0.5938 0.8754 0.1246 0.8957 0.1043 </TABLE>
  </DEFINITION>

  <DEFINITION>
    <FOR>node15_0</FOR>
    <TABLE>0.8405 0.1595 </TABLE>
  </DEFINITION>

  <DEFINITION>
    <FOR>node4</FOR>
    <GIVEN>node18</GIVEN>
    <GIVEN>node11</GIVEN>
    <GIVEN>node14</GIVEN>
    <TABLE>0.9649 0.0351 0.851 0.149 0.4734 0.5266 0.4894 0.5106 0.5796 0.4204 0.7777 0.2223 0.2692 0.7308 0.4377 0.5623 </TABLE>
  </DEFINITION>

  <DEFINITION>
    <FOR>node25</FOR>
    <GIVEN>node25_0</GIVEN>
    <TABLE>0.741 0.259 0.741 0.259 </TABLE>
  </DEFINITION>

  <DEFINITION>
    <FOR>node5</FOR>
    <GIVEN>node27</GIVEN>
    <GIVEN>node9</GIVEN>
    <TABLE>0.7302 0.2698 0.3688 0.6312 0.1835 0.8165 0.4399 0.5601 </TABLE>
  </DEFINITION>

  <DEFINITION>
    <FOR>node18</FOR>
    <GIVEN>node18_0</GIVEN>
    <GIVEN>node0_0</GIVEN>
    <TABLE>0.45 0.55 0.6 0.4 0.54 0.46 0.3447 0.6553 </TABLE>
  </DEFINITION>

  <DEFINITION>
    <FOR>node6_E</FOR>
    <GIVEN>node10</GIVEN>
    <GIVEN>node27</GIVEN>
    <GIVEN>node9</GIVEN>
    <GIVEN>node0</GIVEN>
    <TABLE>0.9901 0.0099 0.9931 0.0069 0.6755 0.3245 0.8407 0.1593 0.5862 0.4138 0.6353 0.3647 0.4734 0.5266 0.2164 0.7836 0.3761 0.6239 0.7248 0.2752 0.571 0.429 0.0731 0.9269 0.6821 0.3179 0.3923 0.6077 0.8611 0.1389 0.1418 0.8582 </TABLE>
  </DEFINITION>

  <DEFINITION>
    <FOR>node15</FOR>
    <GIVEN>node15_0</GIVEN>
    <TABLE>0.8405 0.1595 0.8405 0.1595 </TABLE>
  </DEFINITION>

  <DEFINITION>
    <FOR>node31</FOR>
    <GIVEN>node31_0</GIVEN>
    <GIVEN>node25_0</GIVEN>
    <TABLE>0.41 0.59 0.27 0.73 0.67 0.33 0.57 0.43 </TABLE>
  </DEFINITION>

  <DEFINITION>
    <FOR>node24_E</FOR>
    <GIVEN>node12</GIVEN>
    <GIVEN>node19</GIVEN>
    <GIVEN>node9</GIVEN>
    <GIVEN>node27</GIVEN>
    <TABLE>0.6269 0.3731 0.264 0.736 0.6948 0.3052 0.5719 0.4281 0.4509 0.5491 0.7254 0.2746 0.1633 0.8367 0.4702 0.5298 0.1047 0.8953 0.9942 0.0058 0.882 0.118 0.4663 0.5337 0.0949 0.9051 0.8228 0.1772 0.9331 0.0669 0.1296 0.8704 </TABLE>
  </DEFINITION>

  <DEFINITION>
    <FOR>node22_E</FOR>
    <GIVEN>node29</GIVEN>
    <GIVEN>node12</GIVEN>
    <GIVEN>node30</GIVEN>
    <TABLE>0.4516 0.5484 0.8427 0.1573 0.081 0.919 0.3596 0.6404 0.3875 0.6125 0.4285 0.5715 0.7821 0.2179 0.7092 0.2908 </TABLE>
  </DEFINITION>

  <DEFINITION>
    <FOR>node16</FOR>
    <GIVEN>node23</GIVEN>
    <TABLE>0.9544 0.0456 0.9377 0.0623 </TABLE>
  </DEFINITION>

  <DEFINITION>
    <FOR>node11</FOR>
    <GIVEN>node18</GIVEN>
    <TABLE>0.086 0.914 0.1461 0.8539 </TABLE>
  </DEFINITION>

  <DEFINITION>
    <FOR>node8</FOR>
    <GIVEN>node18</GIVEN>
    <GIVEN>node27</GIVEN>
    <TABLE>0.2309 0.7691 0.8426 0.1574 0.4622 0.5378 0.5276 0.4724 </TABLE>
  </DEFINITION>

  <DEFINITION>
    <FOR>node23_0</FOR>
    <TABLE>0.016 0.984 </TABLE>
  </DEFINITION>

  <DEFINITION>
    <FOR>node3</FOR>
    <GIVEN>node23</GIVEN>
    <TABLE>0.0466 0.9534 0.5299 0.4701 </TABLE>
  </DEFINITION>

  <DEFINITION>
    <FOR>node31_0</FOR>
    <TABLE>0.0314 0.9686 </TABLE>
  </DEFINITION>

  <DEFINITION>
    <FOR>node14</FOR>
    <GIVEN>node31</GIVEN>
    <GIVEN>node0</GIVEN>
    <GIVEN>node19</GIVEN>
    <GIVEN>node8</GIVEN>
    <TABLE>0.515 0.485 0.4884 0.5116 0.3887 0.6113 0.7642 0.2358 0.8112 0.1888 0.9481 0.0519 0.7543 0.2457 0.8391 0.1609 0.5819 0.4181 0.2396 0.7604 0.9755 0.0245 0.6652 0.3348 0.2818 0.7182 0.9858 0.0142 0.8216 0.1784 0.9305 0.0695 </TABLE>
  </DEFINITION>

  <DEFINITION>
    <FOR>node2</FOR>
    <GIVEN>node3</GIVEN>
    <TABLE>0.7124 0.2876 0.9427 0.0573 </TABLE>
  </DEFINITION>

  <DEFINITION>
    <FOR>node0</FOR>
    <GIVEN>node0_0</GIVEN>
    <TABLE>0.5507 0.4493 0.5507 0.4493 </TABLE>
  </DEFINITION>

  <DEFINITION>
    <FOR>node19</FOR>
    <GIVEN>node2</GIVEN>
    <TABLE>0.6643 0.3357 0.7397 0.2603 </TABLE>
  </DEFINITION>

  <DEFINITION>
    <FOR>node21</FOR>
    <GIVEN>node0</GIVEN>
    <GIVEN>node23</GIVEN>
    <TABLE>0.8064 0.1936 0.6168 0.3832 0.6587 0.3413 0.4 0.6 </TABLE>
  </DEFINITION>

  <DEFINITION>
    <FOR>node17_E</FOR>
    <GIVEN>node14</GIVEN>
    <GIVEN>node23</GIVEN>
    <GIVEN>node5</GIVEN>
    <TABLE>0.5377 0.4623 0.5815 0.4185 0.1994 0.8006 0.2184 0.7816 0.1228 0.8772 0.0841 0.9159 0.0221 0.9779 0.0119 0.9881 </TABLE>
  </DEFINITION>

  <DEFINITION>
    <FOR>node13</FOR>
    <GIVEN>node20</GIVEN>
    <TABLE>0.8202 0.1798 0.228 0.772 </TABLE>
  </DEFINITION>

  <DEFINITION>
    <FOR>node25_0</FOR>
    <TABLE>0.741 0.259 </TABLE>
  </DEFINITION>

  <DEFINITION>
    <FOR>node26</FOR>
    <GIVEN>node16</GIVEN>
    <GIVEN>node21</GIVEN>
    <TABLE>0.3086 0.6914 0.4737 0.5263 0.2762 0.7238 0.8469 0.1531 </TABLE>
  </DEFINITION>

  <DEFINITION>
    <FOR>node7</FOR>
    <GIVEN>node5</GIVEN>
    <GIVEN>node25</GIVEN>
    <GIVEN>node26</GIVEN>
    <TABLE>0.4542 0.5458 0.8447 0.1553 0.4785 0.5215 0.3772 0.6228 0.8636 0.1364 0.6323 0.3677 0.9273 0.0727 0.9956 0.0044 </TABLE>
  </DEFINITION>

  <DEFINITION>
    <FOR>node1</FOR>
    <GIVEN>node15</GIVEN>
    <GIVEN>node3</GIVEN>
    <GIVEN>node27</GIVEN>
    <GIVEN>node9</GIVEN>
    <TABLE>0.4965 0.5035 0.277 0.723 0.2481 0.7519 0.106 0.894 0.6266 0.3734 0.99 0.01 0.6259 0.3741 0.8211 0.1789 0.7491 0.2509 0.5546 0.4454 0.5821 0.4179 0.4307 0.5693 0.817 0.183 0.2925 0.7075 0.8338 0.1662 0.5409 0.4591 </TABLE>
  </DEFINITION>

  <DEFINITION>
    <FOR>node9</FOR>
    <GIVEN>node13</GIVEN>
    <GIVEN>node14</GIVEN>
    <GIVEN>node25</GIVEN>
    <GIVEN>node2</GIVEN>
    <TABLE>0.4531 0.5469 0.9521 0.0479 0.7983 0.2017 0.4731 0.5269 0.8696 0.1304 0.3248 0.6752 0.9433 0.0567 0.6491 0.3509 0.2748 0.7252 0.2302 0.7698 0.7031 0.2969 0.6087 0.3913 0.2238 0.7762 0.811 0.189 0.2391 0.7609 0.2389 0.7611 </TABLE>
  </DEFINITION>

  <DEFINITION>
    <FOR>node28</FOR>
    <GIVEN>node13</GIVEN>
    <GIVEN>node1</GIVEN>
    <GIVEN>node2</GIVEN>
    <GIVEN>node7</GIVEN>
    <GIVEN>node4</GIVEN>
    <GIVEN>node14</GIVEN>
    <TABLE>0.4624 0.5376 0.8851 0.1149 0.388 0.612 0.7849 0.2151 0.9875 0.0125 0.3577 0.6423 0.9225 0.0775 0.0175 0.9825 0.4649 0.5351 0.2719 0.7281 0.7951 0.2049 0.4913 0.5087 0.0478 0.9522 0.27 0.73 0.9728 0.0272 0.7318 0.2682 0.1926 0.8074 0.3412 0.6588 0.6813 0.3187 0.3197 0.6803 0.385 0.615 0.9277 0.0723 0.83 0.17 0.4677 0.5323 0.6805 0.3195 0.9337 0.0663 0.1596 0.8404 0.1945 0.8055 0.4631 0.5369 0.1274 0.8726 0.6019 0.3981 0.893 0.107 0.9704 0.0296 0.9971 0.0029 0.5741 0.4259 0.9998 2.0E-4 0.3241 0.6759 0.016 0.984 0.2365 0.7635 0.7366 0.2634 0.7153 0.2847 0.4483 0.5517 0.9708 0.0292 0.1223 0.8777 0.0039 0.9961 0.3479 0.6521 0.8515 0.1485 0.9304 0.0696 0.3386 0.6614 0.0535 0.9465 0.2446 0.7554 0.3272 0.6728 0.2753 0.7247 0.2391 0.7609 0.3184 0.6816 0.6909 0.3091 0.2963 0.7037 0.3922 0.6078 0.3885 0.6115 0.5704 0.4296 0.9388 0.0612 0.9178 0.0822 0.7402 0.2598 0.6219 0.3781 </TABLE>
  </DEFINITION>

  <DEFINITION>
    <FOR>node10</FOR>
    <GIVEN>node1</GIVEN>
    <TABLE>0.9174 0.0826 0.6261 0.3739 </TABLE>
  </DEFINITION>

  <DEFINITION>
    <FOR>node30</FOR>
    <GIVEN>node11</GIVEN>
    <TABLE>0.8041 0.1959 0.9729 0.0271 </TABLE>
  </DEFINITION>

  <DEFINITION>
    <FOR>node18_0</FOR>
    <TABLE>0.3447 0.6553 </TABLE>
  </DEFINITION>

  <DEFINITION>
    <FOR>node12</FOR>
    <GIVEN>node9</GIVEN>
    <GIVEN>node28</GIVEN>
    <TABLE>0.9851 0.0149 0.9475 0.0525 0.4318 0.5682 0.1677 0.8323 </TABLE>
  </DEFINITION>

  <DEFINITION>
    <FOR>node29</FOR>
    <GIVEN>node5</GIVEN>
    <GIVEN>node18</GIVEN>
    <GIVEN>node8</GIVEN>
    <GIVEN>node26</GIVEN>
    <TABLE>0.6251 0.3749 0.7537 0.2463 0.063 0.937 0.9645 0.0355 0.6996 0.3004 0.7111 0.2889 0.8416 0.1584 0.7862 0.2138 0.8797 0.1203 0.3984 0.6016 0.8168 0.1832 0.2998 0.7002 0.6561 0.3439 0.6422 0.3578 0.6131 0.3869 0.6043 0.3957 </TABLE>
  </DEFINITION>

  <DEFINITION>
    <FOR>node0_0</FOR>
    <TABLE>0.5507 0.4493 </TABLE>
  </DEFINITION>

</NETWORK>
</BIF>
