<?xml version="1.0" encoding="US-ASCII"?>


<!--
	Bayesian network in XMLBIF v0.3 (BayesNet Interchange Format)
	Produced by JavaBayes (http://www.cs.cmu.edu/~javabayes/
	Number of nodes:76
	Output created Fri Jun 05 10:32:29 CEST 2020
-->



<BIF VERSION="0.3">
<NETWORK>
<NAME>InternalNetwork</NAME>
<!-- Variables -->
<VARIABLE TYPE="nature">
    <NAME>node0</NAME>
    <OUTCOME>state0</OUTCOME>
    <OUTCOME>state1</OUTCOME>
    <PROPERTY>position = (44, 270)</PROPERTY>
</VARIABLE>
<!-- Variables -->
<VARIABLE TYPE="nature">
    <NAME>node1</NAME>
    <OUTCOME>state0</OUTCOME>
    <OUTCOME>state1</OUTCOME>
    <PROPERTY>position = (15, 390)</PROPERTY>
</VARIABLE>
<!-- Variables -->
<VARIABLE TYPE="nature">
    <NAME>node2</NAME>
    <OUTCOME>state0</OUTCOME>
    <OUTCOME>state1</OUTCOME>
    <PROPERTY>position = (45, 30)</PROPERTY>
</VARIABLE>
<!-- Variables -->
<VARIABLE TYPE="nature">
    <NAME>node3</NAME>
    <OUTCOME>state0</OUTCOME>
    <OUTCOME>state1</OUTCOME>
    <PROPERTY>position = (165, 44)</PROPERTY>
</VARIABLE>
<!-- Variables -->
<VARIABLE TYPE="nature">
    <NAME>node4</NAME>
    <OUTCOME>state0</OUTCOME>
    <OUTCOME>state1</OUTCOME>
    <PROPERTY>position = (164, 284)</PROPERTY>
</VARIABLE>
<!-- Variables -->
<VARIABLE TYPE="nature">
    <NAME>node5</NAME>
    <OUTCOME>state0</OUTCOME>
    <OUTCOME>state1</OUTCOME>
    <PROPERTY>position = (285, 30)</PROPERTY>
</VARIABLE>
<!-- Variables -->
<VARIABLE TYPE="nature">
    <NAME>node6</NAME>
    <OUTCOME>state0</OUTCOME>
    <OUTCOME>state1</OUTCOME>
    <PROPERTY>position = (135, 404)</PROPERTY>
</VARIABLE>
<!-- Variables -->
<VARIABLE TYPE="nature">
    <NAME>node7</NAME>
    <OUTCOME>state0</OUTCOME>
    <OUTCOME>state1</OUTCOME>
    <PROPERTY>position = (405, 15)</PROPERTY>
</VARIABLE>
<!-- Variables -->
<VARIABLE TYPE="nature">
    <NAME>node8</NAME>
    <OUTCOME>state0</OUTCOME>
    <OUTCOME>state1</OUTCOME>
    <PROPERTY>position = (525, 29)</PROPERTY>
</VARIABLE>
<!-- Variables -->
<VARIABLE TYPE="nature">
    <NAME>node9</NAME>
    <OUTCOME>state0</OUTCOME>
    <OUTCOME>state1</OUTCOME>
    <PROPERTY>position = (15, 150)</PROPERTY>
</VARIABLE>
<!-- Variables -->
<VARIABLE TYPE="nature">
    <NAME>node10</NAME>
    <OUTCOME>state0</OUTCOME>
    <OUTCOME>state1</OUTCOME>
    <PROPERTY>position = (135, 164)</PROPERTY>
</VARIABLE>
<!-- Variables -->
<VARIABLE TYPE="nature">
    <NAME>node11</NAME>
    <OUTCOME>state0</OUTCOME>
    <OUTCOME>state1</OUTCOME>
    <PROPERTY>position = (255, 150)</PROPERTY>
</VARIABLE>
<!-- Variables -->
<VARIABLE TYPE="nature">
    <NAME>node12</NAME>
    <OUTCOME>state0</OUTCOME>
    <OUTCOME>state1</OUTCOME>
    <PROPERTY>position = (645, 44)</PROPERTY>
</VARIABLE>
<!-- Variables -->
<VARIABLE TYPE="nature">
    <NAME>node13</NAME>
    <OUTCOME>state0</OUTCOME>
    <OUTCOME>state1</OUTCOME>
    <PROPERTY>position = (375, 135)</PROPERTY>
</VARIABLE>
<!-- Variables -->
<VARIABLE TYPE="nature">
    <NAME>node14</NAME>
    <OUTCOME>state0</OUTCOME>
    <OUTCOME>state1</OUTCOME>
    <PROPERTY>position = (495, 149)</PROPERTY>
</VARIABLE>
<!-- Variables -->
<VARIABLE TYPE="nature">
    <NAME>node15</NAME>
    <OUTCOME>state0</OUTCOME>
    <OUTCOME>state1</OUTCOME>
    <PROPERTY>position = (44, 510)</PROPERTY>
</VARIABLE>
<!-- Variables -->
<VARIABLE TYPE="nature">
    <NAME>node16</NAME>
    <OUTCOME>state0</OUTCOME>
    <OUTCOME>state1</OUTCOME>
    <PROPERTY>position = (255, 390)</PROPERTY>
</VARIABLE>
<!-- Variables -->
<VARIABLE TYPE="nature">
    <NAME>node17</NAME>
    <OUTCOME>state0</OUTCOME>
    <OUTCOME>state1</OUTCOME>
    <PROPERTY>position = (284, 270)</PROPERTY>
</VARIABLE>
<!-- Variables -->
<VARIABLE TYPE="nature">
    <NAME>node18</NAME>
    <OUTCOME>state0</OUTCOME>
    <OUTCOME>state1</OUTCOME>
    <PROPERTY>position = (404, 255)</PROPERTY>
</VARIABLE>
<!-- Variables -->
<VARIABLE TYPE="nature">
    <NAME>node19</NAME>
    <OUTCOME>state0</OUTCOME>
    <OUTCOME>state1</OUTCOME>
    <PROPERTY>position = (524, 269)</PROPERTY>
</VARIABLE>
<!-- Variables -->
<VARIABLE TYPE="nature">
    <NAME>node20</NAME>
    <OUTCOME>state0</OUTCOME>
    <OUTCOME>state1</OUTCOME>
    <PROPERTY>position = (644, 284)</PROPERTY>
</VARIABLE>
<!-- Variables -->
<VARIABLE TYPE="nature">
    <NAME>node21</NAME>
    <OUTCOME>state0</OUTCOME>
    <OUTCOME>state1</OUTCOME>
    <PROPERTY>position = (765, 30)</PROPERTY>
</VARIABLE>
<!-- Variables -->
<VARIABLE TYPE="nature">
    <NAME>node22</NAME>
    <OUTCOME>state0</OUTCOME>
    <OUTCOME>state1</OUTCOME>
    <PROPERTY>position = (615, 164)</PROPERTY>
</VARIABLE>
<!-- Variables -->
<VARIABLE TYPE="nature">
    <NAME>node23</NAME>
    <OUTCOME>state0</OUTCOME>
    <OUTCOME>state1</OUTCOME>
    <PROPERTY>position = (735, 150)</PROPERTY>
</VARIABLE>
<!-- Variables -->
<VARIABLE TYPE="nature">
    <NAME>node24</NAME>
    <OUTCOME>state0</OUTCOME>
    <OUTCOME>state1</OUTCOME>
    <PROPERTY>position = (855, 135)</PROPERTY>
</VARIABLE>
<!-- Variables -->
<VARIABLE TYPE="nature">
    <NAME>node25</NAME>
    <OUTCOME>state0</OUTCOME>
    <OUTCOME>state1</OUTCOME>
    <PROPERTY>position = (375, 375)</PROPERTY>
</VARIABLE>
<!-- Variables -->
<VARIABLE TYPE="nature">
    <NAME>node26</NAME>
    <OUTCOME>state0</OUTCOME>
    <OUTCOME>state1</OUTCOME>
    <PROPERTY>position = (975, 149)</PROPERTY>
</VARIABLE>
<!-- Variables -->
<VARIABLE TYPE="nature">
    <NAME>node27</NAME>
    <OUTCOME>state0</OUTCOME>
    <OUTCOME>state1</OUTCOME>
    <PROPERTY>position = (1095, 164)</PROPERTY>
</VARIABLE>
<!-- Variables -->
<VARIABLE TYPE="nature">
    <NAME>node28</NAME>
    <OUTCOME>state0</OUTCOME>
    <OUTCOME>state1</OUTCOME>
    <PROPERTY>position = (1215, 150)</PROPERTY>
</VARIABLE>
<!-- Variables -->
<VARIABLE TYPE="nature">
    <NAME>node29</NAME>
    <OUTCOME>state0</OUTCOME>
    <OUTCOME>state1</OUTCOME>
    <PROPERTY>position = (764, 270)</PROPERTY>
</VARIABLE>
<!-- Variables -->
<VARIABLE TYPE="nature">
    <NAME>node30</NAME>
    <OUTCOME>state0</OUTCOME>
    <OUTCOME>state1</OUTCOME>
    <PROPERTY>position = (1335, 135)</PROPERTY>
</VARIABLE>
<!-- Variables -->
<VARIABLE TYPE="nature">
    <NAME>node31</NAME>
    <OUTCOME>state0</OUTCOME>
    <OUTCOME>state1</OUTCOME>
    <PROPERTY>position = (1455, 149)</PROPERTY>
</VARIABLE>
<!-- Variables -->
<VARIABLE TYPE="nature">
    <NAME>node32</NAME>
    <OUTCOME>state0</OUTCOME>
    <OUTCOME>state1</OUTCOME>
    <PROPERTY>position = (884, 255)</PROPERTY>
</VARIABLE>
<!-- Variables -->
<VARIABLE TYPE="nature">
    <NAME>node33</NAME>
    <OUTCOME>state0</OUTCOME>
    <OUTCOME>state1</OUTCOME>
    <PROPERTY>position = (495, 389)</PROPERTY>
</VARIABLE>
<!-- Variables -->
<VARIABLE TYPE="nature">
    <NAME>node34</NAME>
    <OUTCOME>state0</OUTCOME>
    <OUTCOME>state1</OUTCOME>
    <PROPERTY>position = (1004, 269)</PROPERTY>
</VARIABLE>
<!-- Variables -->
<VARIABLE TYPE="nature">
    <NAME>node35</NAME>
    <OUTCOME>state0</OUTCOME>
    <OUTCOME>state1</OUTCOME>
    <PROPERTY>position = (1575, 164)</PROPERTY>
</VARIABLE>
<!-- Variables -->
<VARIABLE TYPE="nature">
    <NAME>node36</NAME>
    <OUTCOME>state0</OUTCOME>
    <OUTCOME>state1</OUTCOME>
    <PROPERTY>position = (885, 15)</PROPERTY>
</VARIABLE>
<!-- Variables -->
<VARIABLE TYPE="nature">
    <NAME>node37</NAME>
    <OUTCOME>state0</OUTCOME>
    <OUTCOME>state1</OUTCOME>
    <PROPERTY>position = (1005, 29)</PROPERTY>
</VARIABLE>
<!-- Variables -->
<VARIABLE TYPE="nature">
    <NAME>node38</NAME>
    <OUTCOME>state0</OUTCOME>
    <OUTCOME>state1</OUTCOME>
    <PROPERTY>position = (1695, 150)</PROPERTY>
</VARIABLE>
<!-- Variables -->
<VARIABLE TYPE="nature">
    <NAME>node39</NAME>
    <OUTCOME>state0</OUTCOME>
    <OUTCOME>state1</OUTCOME>
    <PROPERTY>position = (1124, 284)</PROPERTY>
</VARIABLE>
<!-- Variables -->
<VARIABLE TYPE="nature">
    <NAME>node40</NAME>
    <OUTCOME>state0</OUTCOME>
    <OUTCOME>state1</OUTCOME>
    <PROPERTY>position = (1244, 270)</PROPERTY>
</VARIABLE>
<!-- Variables -->
<VARIABLE TYPE="nature">
    <NAME>node41</NAME>
    <OUTCOME>state0</OUTCOME>
    <OUTCOME>state1</OUTCOME>
    <PROPERTY>position = (1815, 135)</PROPERTY>
</VARIABLE>
<!-- Variables -->
<VARIABLE TYPE="nature">
    <NAME>node42</NAME>
    <OUTCOME>state0</OUTCOME>
    <OUTCOME>state1</OUTCOME>
    <PROPERTY>position = (1935, 149)</PROPERTY>
</VARIABLE>
<!-- Variables -->
<VARIABLE TYPE="nature">
    <NAME>node43</NAME>
    <OUTCOME>state0</OUTCOME>
    <OUTCOME>state1</OUTCOME>
    <PROPERTY>position = (615, 404)</PROPERTY>
</VARIABLE>
<!-- Variables -->
<VARIABLE TYPE="nature">
    <NAME>node44</NAME>
    <OUTCOME>state0</OUTCOME>
    <OUTCOME>state1</OUTCOME>
    <PROPERTY>position = (1125, 44)</PROPERTY>
</VARIABLE>
<!-- Variables -->
<VARIABLE TYPE="nature">
    <NAME>node45</NAME>
    <OUTCOME>state0</OUTCOME>
    <OUTCOME>state1</OUTCOME>
    <PROPERTY>position = (2055, 164)</PROPERTY>
</VARIABLE>
<!-- Variables -->
<VARIABLE TYPE="nature">
    <NAME>node46</NAME>
    <OUTCOME>state0</OUTCOME>
    <OUTCOME>state1</OUTCOME>
    <PROPERTY>position = (1364, 255)</PROPERTY>
</VARIABLE>
<!-- Variables -->
<VARIABLE TYPE="nature">
    <NAME>node47</NAME>
    <OUTCOME>state0</OUTCOME>
    <OUTCOME>state1</OUTCOME>
    <PROPERTY>position = (2175, 150)</PROPERTY>
</VARIABLE>
<!-- Variables -->
<VARIABLE TYPE="nature">
    <NAME>node48</NAME>
    <OUTCOME>state0</OUTCOME>
    <OUTCOME>state1</OUTCOME>
    <PROPERTY>position = (2295, 135)</PROPERTY>
</VARIABLE>
<!-- Variables -->
<VARIABLE TYPE="nature">
    <NAME>node49</NAME>
    <OUTCOME>state0</OUTCOME>
    <OUTCOME>state1</OUTCOME>
    <PROPERTY>position = (164, 524)</PROPERTY>
</VARIABLE>
<!-- Variables -->
<VARIABLE TYPE="nature">
    <NAME>node50</NAME>
    <OUTCOME>state0</OUTCOME>
    <OUTCOME>state1</OUTCOME>
    <PROPERTY>position = (1484, 269)</PROPERTY>
</VARIABLE>
<!-- Variables -->
<VARIABLE TYPE="nature">
    <NAME>node51</NAME>
    <OUTCOME>state0</OUTCOME>
    <OUTCOME>state1</OUTCOME>
    <PROPERTY>position = (1604, 284)</PROPERTY>
</VARIABLE>
<!-- Variables -->
<VARIABLE TYPE="nature">
    <NAME>node52</NAME>
    <OUTCOME>state0</OUTCOME>
    <OUTCOME>state1</OUTCOME>
    <PROPERTY>position = (1724, 270)</PROPERTY>
</VARIABLE>
<!-- Variables -->
<VARIABLE TYPE="nature">
    <NAME>node53</NAME>
    <OUTCOME>state0</OUTCOME>
    <OUTCOME>state1</OUTCOME>
    <PROPERTY>position = (2415, 149)</PROPERTY>
</VARIABLE>
<!-- Variables -->
<VARIABLE TYPE="nature">
    <NAME>node54</NAME>
    <OUTCOME>state0</OUTCOME>
    <OUTCOME>state1</OUTCOME>
    <PROPERTY>position = (1245, 30)</PROPERTY>
</VARIABLE>
<!-- Variables -->
<VARIABLE TYPE="nature">
    <NAME>node55</NAME>
    <OUTCOME>state0</OUTCOME>
    <OUTCOME>state1</OUTCOME>
    <PROPERTY>position = (1844, 255)</PROPERTY>
</VARIABLE>
<!-- Variables -->
<VARIABLE TYPE="nature">
    <NAME>node56</NAME>
    <OUTCOME>state0</OUTCOME>
    <OUTCOME>state1</OUTCOME>
    <PROPERTY>position = (1964, 269)</PROPERTY>
</VARIABLE>
<!-- Variables -->
<VARIABLE TYPE="nature">
    <NAME>node57</NAME>
    <OUTCOME>state0</OUTCOME>
    <OUTCOME>state1</OUTCOME>
    <PROPERTY>position = (735, 390)</PROPERTY>
</VARIABLE>
<!-- Variables -->
<VARIABLE TYPE="nature">
    <NAME>node58</NAME>
    <OUTCOME>state0</OUTCOME>
    <OUTCOME>state1</OUTCOME>
    <PROPERTY>position = (2535, 164)</PROPERTY>
</VARIABLE>
<!-- Variables -->
<VARIABLE TYPE="nature">
    <NAME>node59</NAME>
    <OUTCOME>state0</OUTCOME>
    <OUTCOME>state1</OUTCOME>
    <PROPERTY>position = (2655, 150)</PROPERTY>
</VARIABLE>
<!-- Variables -->
<VARIABLE TYPE="nature">
    <NAME>node60</NAME>
    <OUTCOME>state0</OUTCOME>
    <OUTCOME>state1</OUTCOME>
    <PROPERTY>position = (2084, 284)</PROPERTY>
</VARIABLE>
<!-- Variables -->
<VARIABLE TYPE="nature">
    <NAME>node61</NAME>
    <OUTCOME>state0</OUTCOME>
    <OUTCOME>state1</OUTCOME>
    <PROPERTY>position = (1365, 15)</PROPERTY>
</VARIABLE>
<!-- Variables -->
<VARIABLE TYPE="nature">
    <NAME>node62</NAME>
    <OUTCOME>state0</OUTCOME>
    <OUTCOME>state1</OUTCOME>
    <PROPERTY>position = (2204, 270)</PROPERTY>
</VARIABLE>
<!-- Variables -->
<VARIABLE TYPE="nature">
    <NAME>node63</NAME>
    <OUTCOME>state0</OUTCOME>
    <OUTCOME>state1</OUTCOME>
    <PROPERTY>position = (1485, 29)</PROPERTY>
</VARIABLE>
<!-- Variables -->
<VARIABLE TYPE="nature">
    <NAME>node64</NAME>
    <OUTCOME>state0</OUTCOME>
    <OUTCOME>state1</OUTCOME>
    <PROPERTY>position = (2775, 135)</PROPERTY>
</VARIABLE>
<!-- Variables -->
<VARIABLE TYPE="nature">
    <NAME>node65</NAME>
    <OUTCOME>state0</OUTCOME>
    <OUTCOME>state1</OUTCOME>
    <PROPERTY>position = (2324, 255)</PROPERTY>
</VARIABLE>
<!-- Variables -->
<VARIABLE TYPE="nature">
    <NAME>node66</NAME>
    <OUTCOME>state0</OUTCOME>
    <OUTCOME>state1</OUTCOME>
    <PROPERTY>position = (2444, 269)</PROPERTY>
</VARIABLE>
<!-- Variables -->
<VARIABLE TYPE="nature">
    <NAME>node67</NAME>
    <OUTCOME>state0</OUTCOME>
    <OUTCOME>state1</OUTCOME>
    <PROPERTY>position = (855, 375)</PROPERTY>
</VARIABLE>
<!-- Variables -->
<VARIABLE TYPE="nature">
    <NAME>node68</NAME>
    <OUTCOME>state0</OUTCOME>
    <OUTCOME>state1</OUTCOME>
    <PROPERTY>position = (2895, 149)</PROPERTY>
</VARIABLE>
<!-- Variables -->
<VARIABLE TYPE="nature">
    <NAME>node69</NAME>
    <OUTCOME>state0</OUTCOME>
    <OUTCOME>state1</OUTCOME>
    <PROPERTY>position = (2564, 284)</PROPERTY>
</VARIABLE>
<!-- Variables -->
<VARIABLE TYPE="nature">
    <NAME>node70</NAME>
    <OUTCOME>state0</OUTCOME>
    <OUTCOME>state1</OUTCOME>
    <PROPERTY>position = (3015, 164)</PROPERTY>
</VARIABLE>
<!-- Variables -->
<VARIABLE TYPE="nature">
    <NAME>node71</NAME>
    <OUTCOME>state0</OUTCOME>
    <OUTCOME>state1</OUTCOME>
    <PROPERTY>position = (2684, 270)</PROPERTY>
</VARIABLE>
<!-- Variables -->
<VARIABLE TYPE="nature">
    <NAME>node72</NAME>
    <OUTCOME>state0</OUTCOME>
    <OUTCOME>state1</OUTCOME>
    <PROPERTY>position = (2804, 255)</PROPERTY>
</VARIABLE>
<!-- Variables -->
<VARIABLE TYPE="nature">
    <NAME>node73</NAME>
    <OUTCOME>state0</OUTCOME>
    <OUTCOME>state1</OUTCOME>
    <PROPERTY>position = (1605, 44)</PROPERTY>
</VARIABLE>
<!-- Variables -->
<VARIABLE TYPE="nature">
    <NAME>node74</NAME>
    <OUTCOME>state0</OUTCOME>
    <OUTCOME>state1</OUTCOME>
    <PROPERTY>position = (15, 630)</PROPERTY>
</VARIABLE>
<!-- Variables -->
<VARIABLE TYPE="nature">
    <NAME>node75</NAME>
    <OUTCOME>state0</OUTCOME>
    <OUTCOME>state1</OUTCOME>
    <PROPERTY>position = (3135, 150)</PROPERTY>
</VARIABLE>
<!-- Probability Distributions -->
 <DEFINITION>
      <FOR>node0</FOR>
      <GIVEN>node7</GIVEN>
      <GIVEN>node68</GIVEN>
     <TABLE>0.5245 0.4755 0.0222 0.9778 0.3062 0.6938 0.6668 0.3332 </TABLE>
 </DEFINITION>
 <DEFINITION>
      <FOR>node1</FOR>
      <GIVEN>node53</GIVEN>
      <GIVEN>node61</GIVEN>
      <GIVEN>node33</GIVEN>
     <TABLE>0.7056 0.2944 0.1291 0.8709 0.8572 0.1428 0.0494 0.9506 0.7438 0.2562 0.8398 0.1602 0.8505 0.1495 0.1977 0.8023 </TABLE>
 </DEFINITION>
 <DEFINITION>
      <FOR>node2</FOR>
     <TABLE>0.8173 0.1827 </TABLE>
 </DEFINITION>
 <DEFINITION>
      <FOR>node3</FOR>
     <TABLE>0.3933 0.6067 </TABLE>
 </DEFINITION>
 <DEFINITION>
      <FOR>node4</FOR>
      <GIVEN>node55</GIVEN>
      <GIVEN>node39</GIVEN>
     <TABLE>0.4398 0.5602 0.4287 0.5713 0.754 0.246 0.472 0.528 </TABLE>
 </DEFINITION>
 <DEFINITION>
      <FOR>node5</FOR>
     <TABLE>0.3122 0.6878 </TABLE>
 </DEFINITION>
 <DEFINITION>
      <FOR>node6</FOR>
      <GIVEN>node74</GIVEN>
      <GIVEN>node18</GIVEN>
      <GIVEN>node27</GIVEN>
     <TABLE>0.0011 0.9989 0.2571 0.7429 0.8399 0.1601 0.7888 0.2112 0.3452 0.6548 0.329 0.671 0.4243 0.5757 0.0894 0.9106 </TABLE>
 </DEFINITION>
 <DEFINITION>
      <FOR>node7</FOR>
     <TABLE>0.3104 0.6896 </TABLE>
 </DEFINITION>
 <DEFINITION>
      <FOR>node8</FOR>
     <TABLE>0.6553 0.3447 </TABLE>
 </DEFINITION>
 <DEFINITION>
      <FOR>node9</FOR>
      <GIVEN>node70</GIVEN>
     <TABLE>0.0342 0.9658 0.4676 0.5324 </TABLE>
 </DEFINITION>
 <DEFINITION>
      <FOR>node10</FOR>
      <GIVEN>node52</GIVEN>
     <TABLE>0.5932 0.4068 0.7443 0.2557 </TABLE>
 </DEFINITION>
 <DEFINITION>
      <FOR>node11</FOR>
      <GIVEN>node65</GIVEN>
     <TABLE>0.2543 0.7457 0.919 0.081 </TABLE>
 </DEFINITION>
 <DEFINITION>
      <FOR>node12</FOR>
     <TABLE>0.9821 0.0179 </TABLE>
 </DEFINITION>
 <DEFINITION>
      <FOR>node13</FOR>
      <GIVEN>node62</GIVEN>
     <TABLE>0.5963 0.4037 0.0426 0.9574 </TABLE>
 </DEFINITION>
 <DEFINITION>
      <FOR>node14</FOR>
      <GIVEN>node73</GIVEN>
     <TABLE>0.6023 0.3977 0.1949 0.8051 </TABLE>
 </DEFINITION>
 <DEFINITION>
      <FOR>node15</FOR>
      <GIVEN>node73</GIVEN>
      <GIVEN>node22</GIVEN>
      <GIVEN>node24</GIVEN>
      <GIVEN>node19</GIVEN>
     <TABLE>0.9162 0.0838 0.9036 0.0964 0.7687 0.2313 0.4116 0.5884 0.4395 0.5605 0.3946 0.6054 0.4986 0.5014 0.9167 0.0833 0.8283 0.1717 0.0265 0.9735 0.7749 0.2251 0.1858 0.8142 0.6348 0.3652 0.0266 0.9734 0.4431 0.5569 0.1522 0.8478 </TABLE>
 </DEFINITION>
 <DEFINITION>
      <FOR>node16</FOR>
      <GIVEN>node39</GIVEN>
      <GIVEN>node15</GIVEN>
      <GIVEN>node59</GIVEN>
     <TABLE>0.1021 0.8979 0.7942 0.2058 0.4807 0.5193 0.6484 0.3516 0.9019 0.0981 0.5 0.5 0.5133 0.4867 0.0606 0.9394 </TABLE>
 </DEFINITION>
 <DEFINITION>
      <FOR>node17</FOR>
      <GIVEN>node60</GIVEN>
      <GIVEN>node18</GIVEN>
     <TABLE>0.5062 0.4938 0.9679 0.0321 0.0354 0.9646 0.3212 0.6788 </TABLE>
 </DEFINITION>
 <DEFINITION>
      <FOR>node18</FOR>
      <GIVEN>node61</GIVEN>
      <GIVEN>node5</GIVEN>
     <TABLE>0.2783 0.7217 0.2974 0.7026 0.9111 0.0889 0.469 0.531 </TABLE>
 </DEFINITION>
 <DEFINITION>
      <FOR>node19</FOR>
      <GIVEN>node45</GIVEN>
      <GIVEN>node65</GIVEN>
     <TABLE>0.211 0.789 0.2062 0.7938 0.7906 0.2094 0.983 0.017 </TABLE>
 </DEFINITION>
 <DEFINITION>
      <FOR>node20</FOR>
      <GIVEN>node15</GIVEN>
      <GIVEN>node18</GIVEN>
     <TABLE>0.1731 0.8269 0.303 0.697 0.0287 0.9713 0.0087 0.9913 </TABLE>
 </DEFINITION>
 <DEFINITION>
      <FOR>node21</FOR>
     <TABLE>0.9303 0.0697 </TABLE>
 </DEFINITION>
 <DEFINITION>
      <FOR>node22</FOR>
      <GIVEN>node7</GIVEN>
     <TABLE>0.0305 0.9695 0.1658 0.8342 </TABLE>
 </DEFINITION>
 <DEFINITION>
      <FOR>node23</FOR>
      <GIVEN>node48</GIVEN>
     <TABLE>0.0955 0.9045 0.7634 0.2366 </TABLE>
 </DEFINITION>
 <DEFINITION>
      <FOR>node24</FOR>
      <GIVEN>node10</GIVEN>
     <TABLE>0.7868 0.2132 0.8815 0.1185 </TABLE>
 </DEFINITION>
 <DEFINITION>
      <FOR>node25</FOR>
      <GIVEN>node18</GIVEN>
      <GIVEN>node29</GIVEN>
      <GIVEN>node69</GIVEN>
     <TABLE>0.8732 0.1268 0.7559 0.2441 0.4973 0.5027 0.4411 0.5589 0.0084 0.9916 0.092 0.908 0.7729 0.2271 0.6053 0.3947 </TABLE>
 </DEFINITION>
 <DEFINITION>
      <FOR>node26</FOR>
      <GIVEN>node47</GIVEN>
     <TABLE>0.7148 0.2852 0.4639 0.5361 </TABLE>
 </DEFINITION>
 <DEFINITION>
      <FOR>node27</FOR>
      <GIVEN>node7</GIVEN>
     <TABLE>0.3705 0.6295 0.3029 0.6971 </TABLE>
 </DEFINITION>
 <DEFINITION>
      <FOR>node28</FOR>
      <GIVEN>node22</GIVEN>
     <TABLE>0.962 0.038 0.7262 0.2738 </TABLE>
 </DEFINITION>
 <DEFINITION>
      <FOR>node29</FOR>
      <GIVEN>node57</GIVEN>
      <GIVEN>node15</GIVEN>
     <TABLE>0.451 0.549 0.033 0.967 0.9271 0.0729 0.3846 0.6154 </TABLE>
 </DEFINITION>
 <DEFINITION>
      <FOR>node30</FOR>
      <GIVEN>node18</GIVEN>
     <TABLE>0.6668 0.3332 0.9166 0.0834 </TABLE>
 </DEFINITION>
 <DEFINITION>
      <FOR>node31</FOR>
      <GIVEN>node44</GIVEN>
     <TABLE>0.8691 0.1309 0.735 0.265 </TABLE>
 </DEFINITION>
 <DEFINITION>
      <FOR>node32</FOR>
      <GIVEN>node58</GIVEN>
      <GIVEN>node3</GIVEN>
     <TABLE>0.0646 0.9354 0.0233 0.9767 0.0212 0.9788 0.9186 0.0814 </TABLE>
 </DEFINITION>
 <DEFINITION>
      <FOR>node33</FOR>
      <GIVEN>node17</GIVEN>
      <GIVEN>node35</GIVEN>
      <GIVEN>node31</GIVEN>
     <TABLE>0.345 0.655 0.7463 0.2537 0.965 0.035 0.039 0.961 0.5591 0.4409 0.9476 0.0524 0.2295 0.7705 0.7813 0.2187 </TABLE>
 </DEFINITION>
 <DEFINITION>
      <FOR>node34</FOR>
      <GIVEN>node27</GIVEN>
      <GIVEN>node23</GIVEN>
     <TABLE>0.6583 0.3417 0.1941 0.8059 0.2701 0.7299 0.2907 0.7093 </TABLE>
 </DEFINITION>
 <DEFINITION>
      <FOR>node35</FOR>
      <GIVEN>node47</GIVEN>
     <TABLE>0.31 0.69 0.4008 0.5992 </TABLE>
 </DEFINITION>
 <DEFINITION>
      <FOR>node36</FOR>
     <TABLE>0.3527 0.6473 </TABLE>
 </DEFINITION>
 <DEFINITION>
      <FOR>node37</FOR>
     <TABLE>0.1481 0.8519 </TABLE>
 </DEFINITION>
 <DEFINITION>
      <FOR>node38</FOR>
      <GIVEN>node22</GIVEN>
     <TABLE>0.5476 0.4524 0.9348 0.0652 </TABLE>
 </DEFINITION>
 <DEFINITION>
      <FOR>node39</FOR>
      <GIVEN>node8</GIVEN>
      <GIVEN>node18</GIVEN>
     <TABLE>0.7843 0.2157 0.2478 0.7522 0.1919 0.8081 0.4951 0.5049 </TABLE>
 </DEFINITION>
 <DEFINITION>
      <FOR>node40</FOR>
      <GIVEN>node64</GIVEN>
      <GIVEN>node18</GIVEN>
     <TABLE>0.957 0.043 0.2365 0.7635 0.2152 0.7848 0.2685 0.7315 </TABLE>
 </DEFINITION>
 <DEFINITION>
      <FOR>node41</FOR>
      <GIVEN>node68</GIVEN>
     <TABLE>0.9829 0.0171 0.5166 0.4834 </TABLE>
 </DEFINITION>
 <DEFINITION>
      <FOR>node42</FOR>
      <GIVEN>node36</GIVEN>
     <TABLE>0.5762 0.4238 0.4005 0.5995 </TABLE>
 </DEFINITION>
 <DEFINITION>
      <FOR>node43</FOR>
      <GIVEN>node7</GIVEN>
      <GIVEN>node20</GIVEN>
      <GIVEN>node38</GIVEN>
     <TABLE>0.5487 0.4513 0.3397 0.6603 0.5464 0.4536 0.4355 0.5645 0.2813 0.7187 0.9854 0.0146 0.3972 0.6028 0.7261 0.2739 </TABLE>
 </DEFINITION>
 <DEFINITION>
      <FOR>node44</FOR>
     <TABLE>0.5473 0.4527 </TABLE>
 </DEFINITION>
 <DEFINITION>
      <FOR>node45</FOR>
      <GIVEN>node22</GIVEN>
     <TABLE>0.91 0.09 0.6803 0.3197 </TABLE>
 </DEFINITION>
 <DEFINITION>
      <FOR>node46</FOR>
      <GIVEN>node63</GIVEN>
      <GIVEN>node25</GIVEN>
     <TABLE>0.9619 0.0381 0.9313 0.0687 0.6879 0.3121 0.0321 0.9679 </TABLE>
 </DEFINITION>
 <DEFINITION>
      <FOR>node47</FOR>
      <GIVEN>node2</GIVEN>
     <TABLE>0.5392 0.4608 0.8804 0.1196 </TABLE>
 </DEFINITION>
 <DEFINITION>
      <FOR>node48</FOR>
      <GIVEN>node1</GIVEN>
     <TABLE>0.5471 0.4529 0.7367 0.2633 </TABLE>
 </DEFINITION>
 <DEFINITION>
      <FOR>node49</FOR>
      <GIVEN>node69</GIVEN>
      <GIVEN>node50</GIVEN>
      <GIVEN>node29</GIVEN>
      <GIVEN>node17</GIVEN>
     <TABLE>0.4476 0.5524 0.877 0.123 0.3119 0.6881 0.9855 0.0145 0.0914 0.9086 0.4149 0.5851 0.6265 0.3735 0.2954 0.7046 0.1624 0.8376 0.2325 0.7675 0.775 0.225 0.2323 0.7677 0.6259 0.3741 0.9096 0.0904 0.2191 0.7809 0.7031 0.2969 </TABLE>
 </DEFINITION>
 <DEFINITION>
      <FOR>node50</FOR>
      <GIVEN>node54</GIVEN>
      <GIVEN>node58</GIVEN>
     <TABLE>0.3056 0.6944 0.0018 0.9982 0.5776 0.4224 0.2533 0.7467 </TABLE>
 </DEFINITION>
 <DEFINITION>
      <FOR>node51</FOR>
      <GIVEN>node50</GIVEN>
      <GIVEN>node46</GIVEN>
     <TABLE>0.8542 0.1458 0.5877 0.4123 0.6362 0.3638 0.8848 0.1152 </TABLE>
 </DEFINITION>
 <DEFINITION>
      <FOR>node52</FOR>
      <GIVEN>node45</GIVEN>
      <GIVEN>node17</GIVEN>
     <TABLE>0.1686 0.8314 0.5286 0.4714 0.3662 0.6338 0.1796 0.8204 </TABLE>
 </DEFINITION>
 <DEFINITION>
      <FOR>node53</FOR>
      <GIVEN>node54</GIVEN>
     <TABLE>0.2678 0.7322 0.0798 0.9202 </TABLE>
 </DEFINITION>
 <DEFINITION>
      <FOR>node54</FOR>
     <TABLE>0.737 0.263 </TABLE>
 </DEFINITION>
 <DEFINITION>
      <FOR>node55</FOR>
      <GIVEN>node75</GIVEN>
      <GIVEN>node56</GIVEN>
     <TABLE>0.877 0.123 0.297 0.703 0.0614 0.9386 0.8472 0.1528 </TABLE>
 </DEFINITION>
 <DEFINITION>
      <FOR>node56</FOR>
      <GIVEN>node12</GIVEN>
      <GIVEN>node0</GIVEN>
     <TABLE>0.1103 0.8897 0.7005 0.2995 0.3255 0.6745 0.6987 0.3013 </TABLE>
 </DEFINITION>
 <DEFINITION>
      <FOR>node57</FOR>
      <GIVEN>node43</GIVEN>
      <GIVEN>node37</GIVEN>
      <GIVEN>node0</GIVEN>
     <TABLE>0.3751 0.6249 0.1384 0.8616 0.4191 0.5809 0.9499 0.0501 0.3539 0.6461 0.528 0.472 0.5056 0.4944 0.7941 0.2059 </TABLE>
 </DEFINITION>
 <DEFINITION>
      <FOR>node58</FOR>
      <GIVEN>node37</GIVEN>
     <TABLE>0.8823 0.1177 0.0767 0.9233 </TABLE>
 </DEFINITION>
 <DEFINITION>
      <FOR>node59</FOR>
      <GIVEN>node21</GIVEN>
     <TABLE>0.934 0.066 0.404 0.596 </TABLE>
 </DEFINITION>
 <DEFINITION>
      <FOR>node60</FOR>
      <GIVEN>node18</GIVEN>
      <GIVEN>node53</GIVEN>
     <TABLE>0.4077 0.5923 0.2793 0.7207 0.1745 0.8255 0.0307 0.9693 </TABLE>
 </DEFINITION>
 <DEFINITION>
      <FOR>node61</FOR>
     <TABLE>0.21 0.79 </TABLE>
 </DEFINITION>
 <DEFINITION>
      <FOR>node62</FOR>
      <GIVEN>node31</GIVEN>
      <GIVEN>node49</GIVEN>
     <TABLE>0.2402 0.7598 0.0539 0.9461 0.5273 0.4727 0.3618 0.6382 </TABLE>
 </DEFINITION>
 <DEFINITION>
      <FOR>node63</FOR>
     <TABLE>0.276 0.724 </TABLE>
 </DEFINITION>
 <DEFINITION>
      <FOR>node64</FOR>
      <GIVEN>node8</GIVEN>
     <TABLE>0.3329 0.6671 0.745 0.255 </TABLE>
 </DEFINITION>
 <DEFINITION>
      <FOR>node65</FOR>
      <GIVEN>node14</GIVEN>
      <GIVEN>node39</GIVEN>
     <TABLE>0.3456 0.6544 0.3506 0.6494 0.1373 0.8627 0.0806 0.9194 </TABLE>
 </DEFINITION>
 <DEFINITION>
      <FOR>node66</FOR>
      <GIVEN>node39</GIVEN>
      <GIVEN>node46</GIVEN>
     <TABLE>0.492 0.508 0.9536 0.0464 0.0183 0.9817 0.477 0.523 </TABLE>
 </DEFINITION>
 <DEFINITION>
      <FOR>node67</FOR>
      <GIVEN>node50</GIVEN>
      <GIVEN>node47</GIVEN>
      <GIVEN>node48</GIVEN>
     <TABLE>0.1576 0.8424 0.1018 0.8982 0.9769 0.0231 0.5 0.5 0.2692 0.7308 0.3845 0.6155 0.6612 0.3388 0.2921 0.7079 </TABLE>
 </DEFINITION>
 <DEFINITION>
      <FOR>node68</FOR>
      <GIVEN>node75</GIVEN>
     <TABLE>0.3893 0.6107 0.646 0.354 </TABLE>
 </DEFINITION>
 <DEFINITION>
      <FOR>node69</FOR>
      <GIVEN>node5</GIVEN>
      <GIVEN>node55</GIVEN>
     <TABLE>0.031 0.969 0.7424 0.2576 0.1749 0.8251 0.5069 0.4931 </TABLE>
 </DEFINITION>
 <DEFINITION>
      <FOR>node70</FOR>
      <GIVEN>node5</GIVEN>
     <TABLE>0.9825 0.0175 0.0406 0.9594 </TABLE>
 </DEFINITION>
 <DEFINITION>
      <FOR>node71</FOR>
      <GIVEN>node19</GIVEN>
      <GIVEN>node1</GIVEN>
     <TABLE>0.5497 0.4503 0.0615 0.9385 0.8534 0.1466 0.6476 0.3524 </TABLE>
 </DEFINITION>
 <DEFINITION>
      <FOR>node72</FOR>
      <GIVEN>node4</GIVEN>
      <GIVEN>node16</GIVEN>
     <TABLE>0.0142 0.9858 0.4439 0.5561 0.2792 0.7208 0.5542 0.4458 </TABLE>
 </DEFINITION>
 <DEFINITION>
      <FOR>node73</FOR>
     <TABLE>0.1379 0.8621 </TABLE>
 </DEFINITION>
 <DEFINITION>
      <FOR>node74</FOR>
      <GIVEN>node42</GIVEN>
      <GIVEN>node66</GIVEN>
      <GIVEN>node61</GIVEN>
      <GIVEN>node48</GIVEN>
      <GIVEN>node67</GIVEN>
     <TABLE>0.4643 0.5357 0.4518 0.5482 0.755 0.245 0.8289 0.1711 0.3862 0.6138 0.8978 0.1022 0.5121 0.4879 0.7623 0.2377 0.0171 0.9829 0.6674 0.3326 0.5297 0.4703 0.8125 0.1875 0.4416 0.5584 0.7548 0.2452 0.553 0.447 0.3597 0.6403 0.5638 0.4362 0.8869 0.1131 0.1987 0.8013 0.4064 0.5936 0.2773 0.7227 0.3129 0.6871 0.1818 0.8182 0.5933 0.4067 0.3729 0.6271 0.7523 0.2477 0.1142 0.8858 0.2095 0.7905 0.4413 0.5587 0.0111 0.9889 0.319 0.681 0.251 0.749 </TABLE>
 </DEFINITION>
 <DEFINITION>
      <FOR>node75</FOR>
      <GIVEN>node18</GIVEN>
     <TABLE>0.3019 0.6981 0.4558 0.5442 </TABLE>
 </DEFINITION>
</NETWORK>
</BIF>
